
\data\
ngram 1=7116
ngram 2=14782
ngram 3=89

\1-grams:
-1.350679	</s>
-99	<s>	-0.1291906
-2.435286	一	-0.1580935
-4.092671	一万	-0.02160051
-3.540743	一下	-0.02160052
-4.092671	一下子	-0.02160052
-4.092671	一两	-0.02160052
-3.047324	一个	-0.02160052
-4.092671	一个人	-0.02160052
-4.092671	一个半月	-0.02160052
-4.092671	一个民族	-0.02160052
-4.092671	一串	-0.02160052
-4.092671	一举	-0.02160052
-4.092671	一九	-0.02160052
-3.203315	一些	-0.02160052
-4.092671	一代	-0.02160052
-4.092671	一会儿	-0.02160052
-4.092671	一体	-0.02160051
-3.657064	一切	-0.02160052
-4.092671	一到	-0.02160052
-3.937866	一动	-0.02160051
-4.092671	一千	-0.02160052
-4.092671	一号	-0.02160052
-4.092671	一同	-0.02160052
-4.092671	一名	-0.02160052
-4.092671	一味	-0.02160052
-4.092671	一坐	-0.02160052
-3.449087	一块	-0.02160052
-4.092671	一块儿	-0.02160052
-3.540743	一声	-0.02160051
-3.937866	一处	-0.02160051
-3.937866	一天	-0.02160051
-4.092671	一天到晚	-0.02160052
-4.092671	一头	-0.02160051
-3.937866	一定	-0.02160051
-3.816416	一家	-0.02160052
-4.092671	一家三口	-0.02160051
-4.092671	一对	-0.02160052
-4.092671	一小时	-0.02160051
-3.937866	一带	-0.02160052
-4.092671	一幅幅	-0.02160052
-4.092671	一幢幢	-0.02160052
-4.092671	一平	-0.02160051
-3.449087	一年	-0.02160052
-4.092671	一并	-0.02160052
-4.092671	一座	-0.02160052
-4.092671	一心一意	-0.02160052
-4.092671	一手	-0.02160052
-3.937866	一批	-0.02160051
-3.937866	一把	-0.02160052
-4.092671	一拥而上	-0.02160052
-4.092671	一排排	-0.02160052
-3.816416	一文	-0.02160051
-3.937866	一方面	-0.02160051
-4.092671	一旁	-0.02160052
-4.092671	一旦	-0.02160052
-4.092671	一时	-0.02160052
-4.092671	一曲	-0.02160052
-4.092671	一本	-0.02160052
-4.092671	一枚	-0.02160052
-3.118354	一样	-0.02160051
-3.937866	一根	-0.02160052
-4.092671	一概	-0.02160052
-4.092671	一次次	-0.02160052
-3.657064	一点	-0.02160052
-4.092671	一点儿	-0.02160052
-4.092671	一番	-0.02160052
-3.25297	一直	-0.02160052
-4.092671	一看	-0.02160052
-3.937866	一眼	-0.02160051
-3.540743	一碗	-0.02160051
-4.092671	一篇	-0.02160052
-4.092671	一类	-0.02160052
-4.092671	一经	-0.02160052
-4.092671	一缕	-0.02160052
-3.937866	一群	-0.02160051
-4.092671	一群群	-0.02160051
-3.540743	一般	-0.02160052
-3.816416	一艘	-0.02160051
-4.092671	一行人	-0.02160052
-4.092671	一见	-0.02160052
-4.092671	一角	-0.02160052
-4.092671	一贫如洗	-0.02160052
-3.540743	一起	-0.0673251
-3.937866	一路	-0.02160051
-3.937866	一轮	-0.1464405
-4.092671	一辆	-0.02160052
-4.092671	一进门	-0.02160051
-4.092671	一道	-0.02160052
-4.092671	一针	-0.02160052
-4.092671	一阵	-0.02160052
-4.092671	一阵阵	-0.02160052
-4.092671	一面镜子	-0.02160052
-4.092671	一面面	-0.02160052
-4.092671	丁	-0.02160052
-3.937866	七	-0.02160051
-4.092671	七天	-0.02160052
-4.092671	七层	-0.02160052
-4.092671	七旬	-0.02160051
-4.092671	七百多	-0.02160052
-3.449087	万	-0.04640668
-4.092671	万世	-0.02160052
-3.937866	万人	-0.02160052
-3.816416	万元	-0.02160052
-4.092671	万吨级	-0.02160052
-4.092671	万多	-0.02160052
-4.092671	万宝路	-0.02160052
-4.092671	万里	-0.02160052
-4.092671	丈	-0.02160052
-3.657064	三	-0.02160052
-3.937866	三个	-0.02160051
-4.092671	三个月	-0.02160052
-4.092671	三产	-0.02160052
-4.092671	三人	-0.02160052
-4.092671	三制	-0.02160052
-4.092671	三十万	-0.02160052
-4.092671	三千多	-0.02160052
-4.092671	三味	-0.02160052
-4.092671	三四点钟	-0.02160052
-4.092671	三夏	-0.02160052
-4.092671	三大	-0.02160052
-4.092671	三思而后行	-0.02160052
-4.092671	三百六	-0.02160052
-4.092671	三皇	-0.02160052
-4.092671	三绝	-0.02160052
-4.092671	三胞胎	-0.02160052
-3.937866	三菱	-0.1464405
-4.092671	三郎	-0.02160051
-2.784916	上	-0.1063856
-4.092671	上上下下	-0.02160051
-4.092671	上下	-0.02160052
-3.657064	上了	-0.02160052
-4.092671	上交	-0.02160052
-4.092671	上前	-0.02160052
-3.937866	上午	-0.02160052
-4.092671	上半年	-0.02160052
-3.937866	上去	-0.02160052
-4.092671	上司	-0.02160052
-4.092671	上坡	-0.02160052
-4.092671	上头	-0.02160051
-3.816416	上学	-0.02160052
-3.937866	上岸	-0.1464405
-4.092671	上旬	-0.02160052
-4.092671	上月	-0.02160052
-3.937866	上来	-0.02160052
-3.937866	上校	-0.02160052
-4.092671	上楼	-0.02160051
-4.092671	上次	-0.02160052
-3.657064	上海	-0.02160051
-4.092671	上涨	-0.02160052
-3.816416	上游	-0.02160051
-4.092671	上百	-0.02160052
-3.937866	上空	-0.02160052
-4.092671	上等	-0.02160052
-4.092671	上落	-0.02160052
-4.092671	上街	-0.02160052
-4.092671	上衣	-0.02160052
-4.092671	上访	-0.02160051
-4.092671	上边	-0.02160052
-2.986296	下	-0.03455652
-4.092671	下一个	-0.02160052
-4.092671	下乡	-0.02160052
-3.937866	下决心	-0.02160051
-3.937866	下午	-0.02160052
-4.092671	下去	-0.02160051
-4.092671	下地	-0.02160052
-4.092671	下来	-0.02160052
-4.092671	下派	-0.02160051
-3.816416	下游	-0.02160052
-4.092671	下滑	-0.02160052
-4.092671	下腰	-0.02160052
-4.092671	下边	-0.02160052
-4.092671	下里巴人	-0.02160051
-4.092671	下降	-0.02160051
-4.092671	下雨	-0.02160052
-3.937866	下面	-0.02160052
-2.822288	不	-0.02971282
-3.937866	不久	-0.02160052
-4.092671	不亚于	-0.02160052
-3.373444	不仅	-0.02160052
-4.092671	不休	-0.02160052
-3.816416	不会	-0.02160052
-4.092671	不但	-0.02160051
-3.816416	不住	-0.02160052
-4.092671	不再	-0.02160052
-4.092671	不再爱你	-0.02160052
-4.092671	不准	-0.02160052
-4.092671	不到	-0.02160052
-4.092671	不动	-0.02160052
-4.092671	不及	-0.02160052
-3.937866	不可	-0.02160051
-4.092671	不可少	-0.02160051
-4.092671	不可思议	-0.02160051
-4.092671	不可终日	-0.02160052
-4.092671	不吃	-0.02160052
-4.092671	不同	-0.02160052
-4.092671	不喜	-0.02160052
-4.092671	不喝	-0.02160052
-4.092671	不在	-0.02160052
-4.092671	不够	-0.02160052
-4.092671	不好	-0.02160052
-4.092671	不安	-0.02160052
-4.092671	不对	-0.02160052
-4.092671	不对称	-0.02160052
-4.092671	不少地方	-0.02160052
-4.092671	不平衡	-0.02160052
-4.092671	不弃	-0.02160052
-4.092671	不当	-0.02160051
-4.092671	不得	-0.02160052
-4.092671	不得而知	-0.02160052
-4.092671	不必	-0.02160052
-4.092671	不必担心	-0.02160051
-4.092671	不忘	-0.02160052
-3.937866	不怕	-0.02160051
-4.092671	不愿	-0.02160052
-4.092671	不成	-0.02160052
-3.937866	不敢	-0.02160052
-4.092671	不文明	-0.02160051
-4.092671	不料	-0.02160052
-4.092671	不断	-0.02160052
-3.937866	不断地	-0.02160051
-3.816416	不易	-0.02160051
-3.816416	不是	-0.02160052
-4.092671	不是我	-0.02160052
-4.092671	不景气	-0.02160051
-4.092671	不曾	-0.02160051
-4.092671	不朽	-0.02160051
-4.092671	不比	-0.02160052
-4.092671	不满	-0.02160052
-4.092671	不灭	-0.02160052
-4.092671	不用	-0.02160052
-4.092671	不用问	-0.02160051
-4.092671	不畏	-0.02160052
-3.657064	不知	-0.02160052
-3.937866	不知道	-0.02160051
-4.092671	不稳定	-0.02160052
-4.092671	不穿	-0.02160052
-4.092671	不符合	-0.02160052
-4.092671	不算	-0.02160052
-3.937866	不肯	-0.02160051
-4.092671	不胜枚举	-0.02160052
-3.373444	不能	-0.02160052
-4.092671	不能不	-0.02160052
-4.092671	不舒服	-0.02160052
-3.816416	不要	-0.02160051
-4.092671	不要忽视	-0.02160052
-4.092671	不见	-0.02160052
-3.816416	不让	-0.02160052
-4.092671	不记得	-0.02160051
-4.092671	不论怎样	-0.02160051
-3.816416	不说	-0.02160051
-4.092671	不赞成	-0.02160052
-3.937866	不足	-0.02160052
-4.092671	不过	-0.02160052
-4.092671	不远处	-0.02160051
-4.092671	不闻	-0.02160052
-4.092671	不露	-0.02160052
-3.937866	不顾	-0.02160051
-2.411913	与	-0.02901942
-3.937866	与其	-0.02160051
-4.092671	与此同时	-0.02160052
-4.092671	丑	-0.02160051
-4.092671	丑陋	-0.02160051
-3.657064	专业	-0.0673251
-4.092671	专业户	-0.02160052
-4.092671	专业组	-0.02160052
-4.092671	专利	-0.02160052
-4.092671	专卖局	-0.02160052
-3.657064	专家	-0.02160051
-4.092671	专家组	-0.02160052
-4.092671	专栏	-0.02160052
-4.092671	专款	-0.02160052
-3.937866	专用	-0.02160052
-4.092671	专用车	-0.02160052
-4.092671	专程	-0.02160052
-4.092671	专营	-0.02160052
-4.092671	专门	-0.02160052
-3.540743	且	-0.02160051
-4.092671	世	-0.02160052
-4.092671	世珍	-0.02160052
-3.657064	世界	-0.02160052
-4.092671	世界上	-0.02160052
-4.092671	世界遗产	-0.02160052
-3.937866	世纪	-0.02160052
-4.092671	业	-0.02160052
-3.540743	业余	-0.02160052
-3.449087	业务	-0.02160052
-3.937866	业已	-0.02160051
-4.092671	丛	-0.02160051
-3.816416	东	-0.02160051
-4.092671	东三环	-0.02160052
-3.937866	东京	-0.1464405
-4.092671	东南亚	-0.02160051
-4.092671	东奔西跑	-0.02160052
-4.092671	东山	-0.02160052
-4.092671	东山区	-0.02160052
-4.092671	东岸	-0.02160052
-4.092671	东扩	-0.02160051
-3.937866	东方	-0.02160051
-4.092671	东楼	-0.02160052
-4.092671	东门外	-0.02160052
-3.937866	丝	-0.02160051
-4.092671	丝厂	-0.02160051
-4.092671	丝绸之路	-0.02160051
-3.937866	丢	-0.02160052
-4.092671	丢下	-0.02160052
-3.15876	两	-0.02160052
-3.937866	两个	-0.02160052
-3.937866	两人	-0.02160051
-4.092671	两位	-0.02160052
-4.092671	两侧	-0.02160052
-4.092671	两兄弟	-0.02160051
-4.092671	两只	-0.02160052
-4.092671	两天	-0.02160052
-4.092671	两头	-0.02160051
-4.092671	两家	-0.02160052
-4.092671	两局	-0.02160052
-4.092671	两岸	-0.02160052
-4.092671	两年	-0.02160052
-4.092671	两旁	-0.02160052
-4.092671	两次	-0.02160052
-4.092671	两派	-0.02160052
-3.937866	两眼	-0.02160051
-3.937866	两种	-0.02160052
-3.816416	严	-0.1007225
-4.092671	严严实实	-0.02160052
-4.092671	严冬	-0.02160052
-4.092671	严厉打击	-0.02160052
-4.092671	严密	-0.02160051
-4.092671	严格	-0.02160052
-3.937866	严禁	-0.02160052
-4.092671	严肃	-0.02160052
-4.092671	严辞	-0.02160052
-3.657064	严重	-0.02160052
-3.937866	丧	-0.02160052
-4.092671	丧失	-0.02160052
-4.092671	丧生	-0.02160052
-4.092671	丧身	-0.02160052
-3.203315	个	-0.02160051
-4.092671	个人	-0.02160052
-3.816416	个体	-0.02160051
-4.092671	个别	-0.02160051
-2.688923	中	-0.02843523
-4.092671	中医	-0.02160052
-4.092671	中医药	-0.02160051
-3.937866	中华	-0.02160051
-4.092671	中华人民共和国	-0.02160052
-4.092671	中原	-0.02160052
-3.309043	中国	-0.04386132
-4.092671	中国政府	-0.02160052
-4.092671	中国科学院	-0.02160052
-4.092671	中国足球	-0.02160051
-4.092671	中国队	-0.02160052
-3.937866	中央	-0.02160051
-4.092671	中央军事委员会	-0.02160051
-3.937866	中央军委	-0.02160051
-3.937866	中学	-0.02160051
-4.092671	中将	-0.02160052
-4.092671	中小学	-0.02160052
-3.937866	中年	-0.02160052
-3.816416	中心	-0.02160052
-3.937866	中文	-0.1464405
-4.092671	中方	-0.02160052
-4.092671	中旬	-0.02160051
-3.937866	中秋	-0.1464405
-4.092671	中等	-0.02160052
-4.092671	中老年	-0.02160052
-4.092671	中间	-0.02160052
-4.092671	丰功	-0.02160052
-4.092671	丰富	-0.02160052
-4.092671	丰收	-0.02160052
-4.092671	丰碑	-0.02160051
-3.937866	串	-0.02160052
-4.092671	临了	-0.02160052
-4.092671	临床医学	-0.02160051
-3.937866	临时	-0.02160051
-2.389734	为	-0.02160052
-3.540743	为了	-0.02160051
-3.937866	为什么	-0.02160051
-4.092671	为何	-0.02160052
-4.092671	为准	-0.02160052
-4.092671	为有	-0.02160052
-3.937866	为由	-0.02160051
-4.092671	主产	-0.02160052
-3.816416	主人	-0.02160051
-4.092671	主任	-0.02160052
-3.937866	主动	-0.02160051
-4.092671	主峰	-0.02160052
-4.092671	主张	-0.02160052
-4.092671	主持	-0.02160052
-4.092671	主旋律	-0.02160052
-4.092671	主桥	-0.02160052
-4.092671	主犯	-0.02160052
-3.816416	主管	-0.02160051
-3.540743	主要	-0.02160052
-4.092671	主要原因	-0.02160052
-4.092671	丽日	-0.02160052
-4.092671	丽芳	-0.02160052
-4.092671	丽雅	-0.02160052
-4.092671	举办	-0.02160051
-4.092671	举措	-0.02160052
-4.092671	举止	-0.02160052
-3.816416	举行	-0.02160052
-4.092671	举起	-0.02160051
-4.092671	举重	-0.02160052
-4.092671	乃	-0.02160052
-3.937866	久	-0.02160052
-4.092671	久居	-0.02160052
-4.092671	久而久之	-0.02160052
-4.092671	么事	-0.02160052
-4.092671	义务	-0.02160052
-4.092671	义演	-0.02160052
-4.092671	义齿	-0.02160052
-2.986296	之	-0.02160051
-4.092671	之一	-0.02160052
-3.816416	之中	-0.02160052
-3.937866	之后	-0.02160051
-3.937866	之外	-0.02160051
-4.092671	之夜	-0.02160051
-4.092671	之战	-0.02160052
-4.092671	之类	-0.02160051
-4.092671	之间	-0.02160052
-4.092671	之风	-0.02160052
-3.937866	乌	-0.02160051
-4.092671	乌克兰	-0.02160052
-4.092671	乌兹别克斯坦	-0.02160052
-4.092671	乌尔	-0.02160052
-4.092671	乌金	-0.02160052
-4.092671	乎	-0.02160052
-4.092671	乐团	-0.02160052
-4.092671	乐得	-0.02160051
-4.092671	乒乓	-0.02160052
-3.937866	乒乓球	-0.02160051
-4.092671	乔	-0.02160052
-4.092671	乔森	-0.02160052
-4.092671	乔波	-0.02160052
-4.092671	乖张	-0.02160052
-4.092671	乘	-0.02160052
-4.092671	乘凉	-0.02160051
-4.092671	乘机	-0.02160052
-4.092671	乙型肝炎	-0.02160052
-4.092671	乙肝	-0.02160052
-4.092671	九	-0.02160052
-4.092671	九四年	-0.02160052
-4.092671	九所	-0.02160051
-4.092671	九月	-0.02160052
-4.092671	九段	-0.02160052
-2.265256	也	-0.05075984
-4.092671	也好	-0.02160052
-3.15876	也是	-0.02160052
-3.937866	也有	-0.02160051
-3.937866	也罢	-0.02160051
-4.092671	习惯	-0.02160052
-3.540743	乡	-0.02160051
-4.092671	乡镇	-0.02160052
-3.937866	书	-0.02160052
-4.092671	书写	-0.02160051
-4.092671	书呆子	-0.02160052
-4.092671	书屋	-0.02160052
-4.092671	书市	-0.02160052
-4.092671	书报	-0.02160051
-4.092671	书画家	-0.02160052
-4.092671	书稿	-0.02160052
-4.092671	书籍	-0.02160052
-4.092671	书记	-0.02160052
-3.816416	买	-0.02160051
-3.449087	乱	-0.02160052
-4.092671	乱七八糟	-0.02160052
-4.092671	乱云	-0.02160052
-4.092671	乱说	-0.02160052
-4.092671	乱采	-0.02160052
-3.937866	乳	-0.02160051
-4.092671	乳母	-0.02160052
-2.054936	了	-0.1249706
-4.092671	了解一下	-0.02160052
-3.937866	予以	-0.02160051
-3.816416	争夺	-0.02160052
-4.092671	争抢	-0.02160051
-4.092671	争相	-0.02160052
-4.092671	争议	-0.02160052
-4.092671	事	-0.02160051
-4.092671	事业	-0.02160052
-4.092671	事件	-0.02160052
-4.092671	事务	-0.02160052
-4.092671	事物	-0.02160051
-4.092671	事迹	-0.02160052
-3.047324	二	-0.06109165
-3.816416	二个	-0.02160051
-4.092671	二人	-0.02160052
-4.092671	二十七	-0.02160052
-4.092671	二十五史	-0.02160052
-4.092671	二千	-0.02160052
-4.092671	二哥	-0.02160052
-4.092671	二团	-0.02160052
-4.092671	二嫂	-0.02160052
-4.092671	二小姐	-0.02160052
-4.092671	二月	-0.02160052
-4.092671	二林	-0.02160052
-3.937866	二毛	-0.02160051
-4.092671	二氧化硫	-0.02160052
-4.092671	二氧化碳	-0.02160052
-4.092671	二连	-0.02160052
-2.90833	于	-0.02160052
-4.092671	于心	-0.02160051
-4.092671	于是	-0.02160052
-4.092671	于是乎	-0.02160052
-4.092671	于此	-0.02160052
-4.092671	亏	-0.02160051
-3.449087	云	-0.02160052
-3.937866	云云	-0.02160052
-3.937866	云南	-0.02160052
-4.092671	云团	-0.02160051
-4.092671	云层	-0.02160052
-4.092671	云母	-0.02160052
-4.092671	云雨	-0.02160052
-3.937866	云霞	-0.02160051
-3.657064	五	-0.02160052
-4.092671	五个月	-0.02160051
-4.092671	五人	-0.02160052
-4.092671	五六	-0.02160052
-4.092671	五十	-0.02160052
-4.092671	五味	-0.02160051
-4.092671	五四运动	-0.02160051
-4.092671	五大	-0.02160052
-4.092671	五岳	-0.02160052
-4.092671	五项	-0.02160052
-4.092671	五香	-0.02160051
-3.657064	井	-0.02160052
-4.092671	井口	-0.02160051
-3.937866	亚	-0.02160051
-4.092671	亚中	-0.02160052
-3.816416	亚军	-0.02160051
-3.937866	亚洲	-0.02160052
-4.092671	亚特兰大	-0.02160052
-4.092671	亚硝胺	-0.02160052
-4.092671	亚红	-0.02160052
-4.092671	亚美	-0.02160052
-3.937866	亚美尼亚	-0.02160052
-4.092671	亚裔	-0.02160052
-3.816416	些	-0.02160052
-4.092671	亟待	-0.02160052
-3.816416	交	-0.02160051
-4.092671	交易	-0.02160052
-4.092671	交火	-0.02160052
-4.092671	交织	-0.02160051
-4.092671	交谈	-0.02160052
-4.092671	交通	-0.02160052
-4.092671	交配	-0.02160052
-4.092671	交错	-0.02160052
-3.937866	亦	-0.02160051
-3.937866	产	-0.02160051
-4.092671	产出	-0.02160052
-3.816416	产品	-0.02160052
-4.092671	产品质量	-0.02160052
-4.092671	产妇	-0.02160052
-4.092671	产权	-0.02160052
-3.937866	产生	-0.02160052
-4.092671	产量	-0.02160052
-4.092671	亨德森	-0.02160052
-3.540743	亩	-0.02160052
-4.092671	亩产	-0.02160052
-4.092671	享受	-0.02160051
-4.092671	享年	-0.02160052
-4.092671	享用	-0.02160052
-4.092671	享誉	-0.02160052
-4.092671	亭	-0.02160052
-4.092671	亭子	-0.02160052
-4.092671	亮	-0.02160052
-3.937866	亲	-0.02160052
-3.937866	亲人	-0.02160052
-3.937866	亲切	-0.02160052
-4.092671	亲属	-0.02160052
-4.092671	亲手	-0.02160052
-3.937866	亲朋	-0.02160052
-4.092671	亲缘	-0.02160052
-4.092671	亲近	-0.02160051
-2.88517	人	-0.05381404
-4.092671	人为	-0.02160052
-4.092671	人代会	-0.02160052
-4.092671	人们	-0.02160052
-3.816416	人体	-0.1007225
-4.092671	人口	-0.02160051
-3.25297	人员	-0.02160052
-4.092671	人和	-0.02160052
-4.092671	人均	-0.02160052
-4.092671	人士	-0.02160052
-4.092671	人声鼎沸	-0.02160052
-3.937866	人家	-0.02160051
-4.092671	人工	-0.02160052
-4.092671	人往	-0.02160052
-4.092671	人愿	-0.02160051
-3.816416	人才	-0.07955015
-4.092671	人次	-0.02160052
-3.937866	人民	-0.02160051
-4.092671	人民大会堂	-0.02160052
-4.092671	人民政府	-0.02160052
-3.937866	人类	-0.02160052
-4.092671	人类学家	-0.02160052
-4.092671	人群	-0.02160052
-4.092671	人选	-0.02160052
-4.092671	人间	-0.02160052
-4.092671	亿	-0.02160052
-4.092671	什	-0.02160052
-3.816416	什么	-0.02160052
-3.937866	仁	-0.02160052
-3.937866	仅	-0.02160051
-3.449087	今天	-0.04960949
-4.092671	今天下午	-0.02160052
-3.657064	今年	-0.02160052
-4.092671	今早	-0.02160052
-4.092671	今晚	-0.02160052
-4.092671	介绍	-0.02160051
-4.092671	介绍信	-0.02160052
-3.203315	仍	-0.02160052
-4.092671	仍是	-0.02160052
-4.092671	仍未	-0.02160052
-4.092671	仍然	-0.02160052
-2.750506	从	-0.03537924
-4.092671	从中	-0.02160052
-3.816416	从事	-0.02160051
-4.092671	从前	-0.02160052
-4.092671	从古到今	-0.02160051
-4.092671	从容	-0.02160052
-4.092671	从小	-0.02160051
-4.092671	从未	-0.02160052
-4.092671	从来	-0.02160051
-4.092671	从此	-0.02160052
-4.092671	从而	-0.02160052
-4.092671	从零开始	-0.02160051
-4.092671	仓	-0.02160052
-4.092671	仓库	-0.02160052
-4.092671	仓皇	-0.02160052
-4.092671	仔	-0.02160052
-2.523762	他	-0.1002563
-4.092671	他乡	-0.02160051
-4.092671	他人	-0.02160051
-2.986296	他们	-0.02160052
-4.092671	他说	-0.02160052
-4.092671	付与	-0.02160052
-4.092671	仙	-0.02160052
-4.092671	代	-0.02160052
-3.657064	代表	-0.02160052
-3.657064	令	-0.02160052
-3.937866	令人	-0.02160051
-2.674801	以	-0.0280302
-4.092671	以下	-0.02160051
-3.657064	以为	-0.02160052
-4.092671	以前	-0.02160051
-3.937866	以及	-0.02160051
-3.937866	以后	-0.02160052
-3.937866	以外	-0.02160052
-4.092671	以往	-0.02160052
-4.092671	以来	-0.02160052
-4.092671	以示	-0.02160052
-3.937866	仪式	-0.1464405
-3.373444	们	-0.02160052
-4.092671	仰卧	-0.02160052
-4.092671	仰卧起坐	-0.02160052
-4.092671	仰慕	-0.02160051
-4.092671	仰望天空	-0.02160052
-4.092671	仰面	-0.02160052
-4.092671	仲尼	-0.02160051
-3.937866	件	-0.02160052
-3.937866	价	-0.02160052
-3.937866	价格	-0.02160051
-3.816416	任	-0.02160051
-4.092671	任何	-0.02160052
-4.092671	任职	-0.02160052
-4.092671	份	-0.02160051
-4.092671	仿制	-0.02160052
-4.092671	企	-0.02160052
-3.203315	企业	-0.02160052
-4.092671	企业形象	-0.02160052
-4.092671	企业文化	-0.02160051
-4.092671	企图	-0.02160052
-4.092671	伊始	-0.02160052
-4.092671	伊拉克	-0.02160051
-4.092671	伊斯兰教	-0.02160052
-4.092671	伊朗	-0.02160052
-3.937866	伍	-0.02160052
-4.092671	休	-0.02160052
-4.092671	休息室	-0.02160052
-3.816416	众	-0.02160052
-4.092671	众生	-0.02160052
-3.657064	优	-0.02160052
-4.092671	优先	-0.02160052
-4.092671	优势	-0.02160052
-4.092671	优点	-0.02160052
-3.937866	优秀	-0.02160052
-4.092671	优质	-0.02160052
-4.092671	优越	-0.02160051
-3.309043	会	-0.02160052
-4.092671	会上	-0.02160052
-4.092671	会场	-0.02160052
-4.092671	会心一笑	-0.02160052
-3.937866	会见	-0.02160052
-4.092671	会计	-0.02160052
-4.092671	会议	-0.02160052
-4.092671	会谈	-0.02160052
-4.092671	伞	-0.02160052
-4.092671	伞降	-0.02160052
-3.937866	伟	-0.02160051
-3.937866	传	-0.02160052
-4.092671	传开	-0.02160051
-4.092671	传承	-0.02160052
-4.092671	传授	-0.02160052
-4.092671	传来	-0.02160052
-4.092671	传神	-0.02160052
-3.937866	传统	-0.1464405
-4.092671	伢子	-0.02160052
-4.092671	伤	-0.02160052
-4.092671	伤心地	-0.02160052
-4.092671	伤残	-0.02160052
-4.092671	伦	-0.02160052
-4.092671	伦敦	-0.02160052
-4.092671	伦次	-0.02160051
-4.092671	伪劣	-0.02160052
-4.092671	伪造	-0.02160052
-4.092671	伯	-0.02160052
-3.816416	估计	-0.02160052
-4.092671	伴	-0.02160052
-3.657064	似	-0.02160052
-3.657064	似乎	-0.02160052
-3.937866	似的	-0.02160052
-2.88517	但	-0.04640668
-3.937866	但愿	-0.02160051
-3.937866	但是	-0.02160051
-3.540743	位	-0.02160052
-4.092671	位于	-0.02160052
-3.816416	低	-0.02160051
-4.092671	低于	-0.02160052
-4.092671	低平	-0.02160051
-4.092671	低沉	-0.02160051
-3.937866	低温	-0.02160051
-3.657064	住	-0.02160052
-4.092671	住进	-0.02160051
-4.092671	住院治疗	-0.02160051
-3.937866	佐	-0.02160051
-4.092671	体内	-0.02160052
-4.092671	体外	-0.02160052
-4.092671	体弱	-0.02160052
-4.092671	体现	-0.02160051
-3.309043	体育	-0.02160052
-4.092671	体育中心	-0.02160052
-4.092671	体育场	-0.02160052
-4.092671	体质	-0.02160052
-4.092671	体贴入微	-0.02160052
-3.816416	体验	-0.02160052
-4.092671	何	-0.02160052
-4.092671	何云	-0.02160051
-4.092671	何某	-0.02160052
-4.092671	何物	-0.02160052
-3.937866	余	-0.02160051
-4.092671	余地	-0.02160052
-4.092671	余音	-0.02160052
-4.092671	余额	-0.02160052
-4.092671	余香	-0.02160052
-4.092671	佚	-0.02160052
-3.816416	佛	-0.02160051
-4.092671	佛手	-0.02160052
-4.092671	佛教	-0.02160051
-3.937866	佛法	-0.02160052
-3.373444	作	-0.02160052
-3.937866	作业	-0.02160051
-4.092671	作业本	-0.02160052
-3.937866	作为	-0.02160051
-4.092671	作价	-0.02160052
-3.816416	作品	-0.02160051
-4.092671	作家	-0.02160052
-4.092671	作对	-0.02160052
-4.092671	作文	-0.02160052
-3.816416	作用	-0.02160052
-4.092671	作画	-0.02160051
-4.092671	作美	-0.02160052
-3.15876	你	-0.04007105
-3.937866	你们	-0.02160051
-4.092671	佤	-0.02160051
-4.092671	佳作	-0.02160052
-4.092671	佳肴	-0.02160052
-4.092671	佻	-0.02160052
-3.15876	使	-0.0417898
-4.092671	使人	-0.02160052
-3.449087	使用	-0.02160052
-4.092671	使用方法	-0.02160052
-4.092671	使用权	-0.02160052
-4.092671	例会	-0.02160052
-4.092671	例子	-0.02160052
-3.937866	供	-0.02160052
-4.092671	供应	-0.02160052
-3.937866	依	-0.02160051
-4.092671	依据	-0.02160051
-4.092671	依法	-0.02160052
-3.937866	依然	-0.02160051
-4.092671	依靠	-0.02160051
-4.092671	侠	-0.02160052
-4.092671	侦查员	-0.02160052
-4.092671	侧	-0.02160052
-4.092671	侨	-0.02160051
-4.092671	侬	-0.02160052
-3.937866	侯	-0.02160052
-4.092671	侵蚀	-0.02160052
-3.15876	便	-0.02160052
-4.092671	便民	-0.02160052
-3.937866	促	-0.02160052
-3.816416	俄	-0.1007225
-4.092671	俄共	-0.02160052
-4.092671	俄国	-0.02160052
-4.092671	俄方	-0.02160052
-3.937866	俄罗斯	-0.02160052
-3.816416	俄语	-0.1007225
-4.092671	俊	-0.02160052
-4.092671	俊华	-0.02160052
-4.092671	俏	-0.02160052
-3.540743	俗	-0.02160051
-3.937866	俗称	-0.02160051
-4.092671	保	-0.02160052
-4.092671	保养	-0.02160052
-4.092671	保存	-0.02160051
-4.092671	保存在	-0.02160052
-3.937866	保护	-0.02160051
-4.092671	保护伞	-0.02160052
-4.092671	保持	-0.02160052
-4.092671	保留	-0.02160052
-4.092671	保税区	-0.02160052
-3.937866	保证	-0.02160052
-4.092671	保重	-0.02160052
-4.092671	保长	-0.02160052
-4.092671	保险	-0.02160052
-3.816416	信	-0.02160051
-4.092671	信佛	-0.02160051
-4.092671	信徒	-0.02160051
-4.092671	信息业	-0.02160052
-4.092671	信用卡	-0.02160051
-3.937866	俩	-0.02160052
-4.092671	俩位	-0.02160052
-4.092671	俩几	-0.02160052
-3.540743	修	-0.02160051
-4.092671	修修补补	-0.02160052
-4.092671	修养	-0.02160051
-4.092671	修复	-0.02160052
-4.092671	修改	-0.02160052
-4.092671	修理	-0.02160052
-3.937866	修筑	-0.02160052
-4.092671	修配	-0.02160052
-3.937866	修饰	-0.02160051
-4.092671	俯卧	-0.02160052
-4.092671	俱	-0.02160052
-4.092671	俱乐部	-0.02160051
-4.092671	倍	-0.02160052
-4.092671	倏地	-0.02160052
-4.092671	倒	-0.02160051
-4.092671	倒下	-0.02160052
-4.092671	倒出	-0.02160052
-4.092671	候选人	-0.02160052
-4.092671	倚	-0.02160052
-4.092671	倚重	-0.02160052
-4.092671	借	-0.02160052
-4.092671	倡议	-0.02160052
-4.092671	倩	-0.02160052
-4.092671	债	-0.02160052
-3.816416	债务	-0.02160051
-3.937866	债权	-0.02160052
-4.092671	债权人	-0.02160051
-4.092671	值班	-0.02160052
-4.092671	值班员	-0.02160052
-4.092671	值班室	-0.02160052
-4.092671	倾	-0.02160052
-4.092671	假冒	-0.02160052
-4.092671	假如	-0.02160052
-4.092671	假牙	-0.02160052
-4.092671	假设	-0.02160052
-4.092671	假话	-0.02160052
-4.092671	偏	-0.02160052
-4.092671	偏偏	-0.02160052
-4.092671	偏要	-0.02160052
-4.092671	偕	-0.02160052
-3.25297	做	-0.02160052
-4.092671	做为	-0.02160052
-4.092671	做人	-0.02160051
-4.092671	做做	-0.02160052
-4.092671	做好	-0.02160051
-4.092671	做菜	-0.02160051
-4.092671	停下	-0.02160052
-4.092671	停下来	-0.02160052
-3.937866	停止	-0.02160052
-4.092671	停火	-0.02160051
-3.937866	健	-0.02160052
-4.092671	健儿	-0.02160052
-4.092671	健康	-0.02160052
-4.092671	偶尔	-0.02160052
-4.092671	偶而	-0.02160051
-3.937866	偷	-0.02160052
-4.092671	傅	-0.02160052
-4.092671	傍	-0.02160052
-3.937866	傍晚	-0.02160052
-4.092671	储备	-0.02160052
-4.092671	傩	-0.02160052
-4.092671	傲雪	-0.02160052
-3.309043	像	-0.02160052
-4.092671	像是	-0.02160052
-4.092671	僧人	-0.02160052
-4.092671	僵	-0.02160052
-3.657064	儿	-0.02160052
-4.092671	儿女	-0.02160052
-3.937866	儿媳	-0.02160052
-3.816416	儿子	-0.02160052
-3.937866	儿童	-0.02160052
-4.092671	允许	-0.02160052
-3.373444	元	-0.0743805
-4.092671	元康	-0.02160052
-4.092671	元月	-0.02160051
-4.092671	兄	-0.02160052
-4.092671	兄弟	-0.02160052
-4.092671	充溢	-0.02160052
-3.937866	充满	-0.02160052
-3.816416	先	-0.02160051
-4.092671	先后	-0.02160052
-3.937866	先是	-0.02160051
-3.816416	先生	-0.02160051
-4.092671	先进	-0.02160051
-4.092671	先锋派	-0.02160052
-3.937866	光	-0.02160052
-4.092671	光影	-0.02160052
-4.092671	光波	-0.02160052
-3.937866	光洁	-0.02160051
-4.092671	光洁度	-0.02160052
-4.092671	光溜溜	-0.02160051
-4.092671	光环	-0.02160052
-4.092671	光盘	-0.02160052
-4.092671	光耀	-0.02160052
-4.092671	光膀子	-0.02160052
-4.092671	光芒	-0.02160052
-4.092671	光荣	-0.02160051
-4.092671	光谱	-0.02160052
-4.092671	光顾	-0.02160052
-4.092671	克什米尔	-0.02160051
-4.092671	克斯	-0.02160052
-4.092671	克林顿	-0.02160052
-4.092671	免得	-0.02160052
-4.092671	兑现	-0.02160052
-4.092671	兔	-0.02160051
-3.937866	兔子	-0.02160051
-4.092671	党中央	-0.02160052
-4.092671	党建	-0.02160051
-4.092671	党支部	-0.02160052
-3.816416	入	-0.02160052
-4.092671	入室	-0.02160051
-4.092671	入海	-0.02160051
-4.092671	入网	-0.02160051
-3.373444	全	-0.05376241
-3.937866	全体	-0.02160051
-4.092671	全体员工	-0.02160052
-4.092671	全党	-0.02160052
-4.092671	全剧	-0.02160051
-4.092671	全副武装	-0.02160051
-3.937866	全厂	-0.02160051
-4.092671	全县	-0.02160052
-3.540743	全国	-0.02160052
-4.092671	全国各地	-0.02160052
-4.092671	全天候	-0.02160052
-4.092671	全家	-0.02160052
-4.092671	全文	-0.02160052
-4.092671	全有	-0.02160051
-4.092671	全村	-0.02160052
-4.092671	全椒县	-0.02160052
-4.092671	全然	-0.02160052
-4.092671	全球	-0.02160052
-4.092671	全省	-0.02160052
-4.092671	全能	-0.02160052
-4.092671	全色	-0.02160052
-3.816416	全部	-0.02160052
-4.092671	全都	-0.02160052
-4.092671	全院	-0.02160051
-4.092671	全面	-0.02160052
-4.092671	全额	-0.02160052
-3.937866	八	-0.02160051
-3.937866	八一	-0.02160051
-4.092671	八卦	-0.02160052
-4.092671	八强	-0.02160052
-4.092671	八旗	-0.02160052
-4.092671	八月	-0.02160052
-4.092671	八路军	-0.02160051
-3.657064	公	-0.02160052
-3.937866	公主	-0.02160052
-3.937866	公元前	-0.1464406
-4.092671	公共	-0.02160052
-3.540743	公司	-0.02160052
-4.092671	公安局	-0.02160052
-4.092671	公寓	-0.02160052
-4.092671	公报	-0.02160052
-3.816416	公斤	-0.02160052
-4.092671	公约	-0.02160052
-4.092671	公路	-0.02160052
-4.092671	公里	-0.02160052
-3.449087	六	-0.02160052
-4.092671	六个月	-0.02160051
-4.092671	六人	-0.02160052
-4.092671	六十	-0.02160051
-4.092671	六百	-0.02160052
-3.540743	共	-0.02160051
-4.092671	共产党员	-0.02160052
-4.092671	共享	-0.02160052
-4.092671	共创	-0.02160052
-4.092671	共同	-0.02160052
-4.092671	共同努力	-0.02160052
-4.092671	共同探讨	-0.02160051
-4.092671	共和	-0.02160052
-4.092671	共和党	-0.02160052
-4.092671	共和国	-0.02160052
-4.092671	共建	-0.02160052
-4.092671	共有	-0.02160052
-4.092671	共生	-0.02160052
-4.092671	共计	-0.02160052
-3.937866	关	-0.02160052
-3.937866	关于	-0.02160051
-4.092671	关心	-0.02160052
-3.937866	关怀备至	-0.02160051
-4.092671	关注	-0.02160052
-4.092671	关照	-0.02160052
-4.092671	关税	-0.02160052
-3.540743	关系	-0.02160052
-4.092671	关进	-0.02160051
-4.092671	关闭	-0.02160052
-4.092671	兴起	-0.02160052
-4.092671	兴趣	-0.02160052
-3.203315	其	-0.02160052
-3.657064	其中	-0.02160052
-4.092671	其他	-0.02160052
-4.092671	其他费用	-0.02160052
-4.092671	其它	-0.02160052
-4.092671	其实	-0.02160052
-4.092671	其貌不扬	-0.02160052
-4.092671	其间	-0.02160052
-3.816416	具有	-0.02160052
-4.092671	典礼	-0.02160052
-4.092671	兹	-0.02160052
-3.449087	养	-0.05936215
-4.092671	养女	-0.02160052
-4.092671	养成	-0.02160052
-3.937866	养殖	-0.02160052
-4.092671	养殖业	-0.02160051
-3.937866	养殖技术	-0.02160052
-4.092671	养牛	-0.02160052
-4.092671	养病	-0.02160052
-3.937866	养育	-0.1464405
-3.816416	养鱼	-0.02160052
-4.092671	兼有	-0.02160052
-4.092671	兽	-0.02160052
-4.092671	兽行	-0.02160052
-3.015739	内	-0.03631356
-4.092671	内乱	-0.02160052
-4.092671	内务	-0.02160052
-4.092671	内向	-0.02160052
-4.092671	内地	-0.02160051
-4.092671	内外交困	-0.02160052
-3.816416	内容	-0.02160052
-4.092671	内涵	-0.02160052
-4.092671	内蒙古	-0.02160052
-3.816416	内部	-0.02160051
-3.937866	冈	-0.02160052
-4.092671	冉	-0.02160052
-3.657064	再	-0.02160052
-4.092671	再有	-0.02160052
-4.092671	再次	-0.02160052
-3.937866	冒出	-0.02160052
-4.092671	冒雨	-0.02160052
-3.937866	写	-0.02160051
-3.449087	军	-0.05936215
-4.092671	军事	-0.02160052
-4.092671	军人	-0.02160051
-3.937866	军区	-0.02160051
-4.092671	军营	-0.02160052
-3.937866	军队	-0.02160051
-4.092671	军饷	-0.02160052
-3.540743	农	-0.02160052
-3.937866	农业	-0.02160051
-4.092671	农作物	-0.02160052
-4.092671	农户	-0.02160052
-4.092671	农机具	-0.02160052
-3.657064	农村	-0.07955015
-3.449087	农民	-0.02160052
-4.092671	农用	-0.02160052
-4.092671	农艺师	-0.02160052
-4.092671	农资	-0.02160052
-3.937866	农转非	-0.02160052
-3.937866	冠军	-0.02160051
-4.092671	冤枉	-0.02160052
-4.092671	冬	-0.02160052
-3.937866	冬奥会	-0.02160051
-4.092671	冬暖	-0.02160052
-3.816416	冯	-0.02160051
-4.092671	冰	-0.02160052
-4.092671	冰柜	-0.02160052
-4.092671	冲	-0.02160052
-4.092671	冲减	-0.02160052
-4.092671	冲向	-0.02160052
-3.816416	冲突	-0.1007225
-4.092671	冲进	-0.02160051
-4.092671	决不能	-0.02160052
-4.092671	决口	-0.02160052
-3.657064	决定	-0.02160052
-4.092671	决策	-0.02160052
-4.092671	决议	-0.02160051
-4.092671	决议案	-0.02160052
-3.937866	决赛	-0.1464405
-4.092671	冶炼	-0.02160052
-4.092671	冷冷	-0.02160052
-4.092671	冷冻	-0.02160052
-4.092671	冷战	-0.02160052
-4.092671	冷落	-0.02160052
-4.092671	冷藏	-0.02160052
-4.092671	冷轧	-0.02160052
-4.092671	冷酷	-0.02160052
-4.092671	凄惨	-0.02160051
-4.092671	凄然	-0.02160052
-3.937866	准	-0.02160051
-4.092671	准则	-0.02160052
-3.657064	准备	-0.02160052
-4.092671	准确	-0.02160052
-4.092671	凉	-0.02160052
-3.937866	凋谢	-0.02160052
-3.937866	凌晨	-0.02160051
-3.937866	减	-0.02160052
-4.092671	减去	-0.02160052
-3.540743	减少	-0.02160052
-3.540743	减肥	-0.02160051
-4.092671	减肥药	-0.02160052
-3.937866	凑	-0.02160051
-4.092671	凑合	-0.02160052
-4.092671	凑热闹	-0.02160052
-4.092671	凑近	-0.02160052
-4.092671	凝望	-0.02160052
-3.937866	凝重	-0.02160051
-3.449087	几	-0.02160052
-3.937866	几个	-0.02160052
-4.092671	几个月	-0.02160052
-3.937866	几乎	-0.02160052
-4.092671	几天	-0.02160052
-4.092671	几年前	-0.02160052
-4.092671	几百	-0.02160052
-3.937866	凡	-0.02160052
-4.092671	凭	-0.02160052
-4.092671	凭什么	-0.02160052
-4.092671	凭栏	-0.02160052
-4.092671	凯歌	-0.02160052
-4.092671	凶恶	-0.02160052
-3.816416	凶手	-0.02160051
-4.092671	凶杀	-0.02160052
-4.092671	凶狠	-0.02160052
-3.309043	出	-0.07955015
-4.092671	出于	-0.02160052
-3.816416	出去	-0.02160052
-4.092671	出发	-0.02160052
-4.092671	出口	-0.02160052
-4.092671	出场	-0.02160052
-4.092671	出场费	-0.02160051
-4.092671	出外	-0.02160052
-4.092671	出席	-0.02160052
-3.816416	出来	-0.02160052
-4.092671	出洋	-0.02160052
-4.092671	出海	-0.02160052
-4.092671	出版	-0.02160051
-4.092671	出版社	-0.02160052
-3.937866	出现	-0.02160051
-4.092671	出生	-0.02160051
-4.092671	出门	-0.02160052
-4.092671	出阁	-0.02160052
-4.092671	出面	-0.02160052
-4.092671	击伤	-0.02160052
-4.092671	击沉	-0.02160052
-4.092671	分	-0.02160052
-3.937866	分为	-0.02160051
-3.540743	分别	-0.02160051
-4.092671	分外	-0.02160052
-4.092671	分布	-0.02160051
-4.092671	分心	-0.02160052
-4.092671	分摊	-0.02160052
-4.092671	分获	-0.02160052
-4.092671	分行	-0.02160052
-4.092671	分钱	-0.02160052
-4.092671	切尔	-0.02160052
-4.092671	切片	-0.02160051
-4.092671	切碎	-0.02160052
-4.092671	刊登	-0.02160051
-4.092671	划	-0.02160052
-4.092671	划分	-0.02160052
-4.092671	划时代	-0.02160052
-4.092671	划着	-0.02160052
-4.092671	划破	-0.02160052
-4.092671	列宁	-0.02160052
-4.092671	列车	-0.02160052
-4.092671	列队	-0.02160052
-3.449087	刘	-0.02160052
-4.092671	刘东	-0.02160052
-4.092671	刘云山	-0.02160052
-4.092671	刘小光	-0.02160052
-4.092671	刘永	-0.02160052
-4.092671	刘海	-0.02160052
-4.092671	刘玉	-0.02160052
-3.937866	刘胜	-0.02160051
-4.092671	刘进	-0.02160051
-4.092671	刘邦	-0.02160052
-3.15876	则	-0.02160052
-3.816416	刚	-0.02160051
-4.092671	刚刚	-0.02160051
-4.092671	刚巧	-0.02160052
-4.092671	刚才	-0.02160052
-4.092671	创作	-0.02160052
-4.092671	创办	-0.02160052
-3.937866	创建	-0.02160052
-4.092671	创造	-0.02160051
-4.092671	初	-0.02160052
-3.937866	初二	-0.02160052
-3.816416	判处	-0.02160052
-4.092671	判定	-0.02160052
-4.092671	利	-0.02160052
-4.092671	利于	-0.02160052
-3.816416	利润	-0.02160051
-3.540743	利用	-0.02160052
-4.092671	利益	-0.02160052
-4.092671	利税	-0.02160051
-3.657064	别	-0.07955015
-3.937866	别人	-0.02160052
-4.092671	别国	-0.02160052
-4.092671	别墅	-0.02160051
-4.092671	别小看	-0.02160052
-4.092671	别是	-0.02160052
-4.092671	别有用心	-0.02160052
-4.092671	别样	-0.02160051
-4.092671	别的	-0.02160052
-3.937866	别致	-0.02160052
-3.816416	刮	-0.02160051
-2.718624	到	-0.0368299
-3.118354	到了	-0.02160052
-4.092671	到期	-0.02160051
-4.092671	到达	-0.02160052
-3.816416	制	-0.02160051
-3.937866	制作	-0.02160052
-4.092671	制品厂	-0.02160052
-4.092671	制定	-0.02160052
-4.092671	制止	-0.02160052
-4.092671	制片	-0.02160052
-4.092671	刷	-0.02160052
-4.092671	刺	-0.02160052
-4.092671	刺伤	-0.02160052
-4.092671	刻意	-0.02160052
-4.092671	刻苦	-0.02160052
-4.092671	剌	-0.02160052
-3.373444	前	-0.02160052
-4.092671	前卫	-0.02160052
-3.816416	前往	-0.02160051
-4.092671	前景	-0.02160052
-3.937866	前进	-0.02160052
-4.092671	剧	-0.02160052
-4.092671	剧中	-0.02160052
-4.092671	剧团	-0.02160052
-3.937866	剧目	-0.02160052
-4.092671	剧院	-0.02160052
-3.657064	副	-0.02160052
-3.816416	副主席	-0.02160051
-4.092671	副官	-0.02160052
-4.092671	力	-0.02160052
-3.937866	力量	-0.02160051
-4.092671	劝说	-0.02160052
-4.092671	劝阻	-0.02160052
-4.092671	办	-0.02160052
-4.092671	办案	-0.02160052
-3.937866	办法	-0.02160052
-4.092671	办起	-0.02160051
-4.092671	功	-0.02160052
-4.092671	功力	-0.02160052
-4.092671	功夫	-0.02160052
-4.092671	功能	-0.02160052
-4.092671	加人	-0.02160052
-4.092671	加工	-0.02160052
-3.657064	加强	-0.02160052
-3.937866	加拿大	-0.02160052
-4.092671	加盟	-0.02160052
-4.092671	加糖	-0.02160052
-4.092671	加运费	-0.02160052
-4.092671	加速	-0.02160052
-4.092671	加里	-0.02160052
-4.092671	务	-0.02160052
-4.092671	务必	-0.02160052
-3.937866	劣	-0.02160051
-4.092671	动	-0.02160052
-3.816416	动作	-0.02160051
-3.937866	动物	-0.02160052
-4.092671	动用	-0.02160052
-4.092671	动脉	-0.02160052
-4.092671	助	-0.02160051
-4.092671	助兴	-0.02160052
-4.092671	努力	-0.02160052
-4.092671	努力做到	-0.02160052
-4.092671	劲儿	-0.02160052
-4.092671	劳务	-0.02160051
-4.092671	劳动模范	-0.02160052
-4.092671	劳模	-0.02160052
-4.092671	劳累	-0.02160051
-3.937866	勃勃	-0.02160052
-4.092671	勇斗	-0.02160052
-4.092671	勇猛	-0.02160052
-4.092671	勘探	-0.02160052
-4.092671	募捐	-0.02160052
-4.092671	勤于	-0.02160052
-4.092671	勤劳	-0.02160052
-4.092671	勾	-0.02160052
-4.092671	勾引	-0.02160052
-4.092671	勿忘	-0.02160052
-4.092671	勿忘我	-0.02160052
-4.092671	匀称	-0.02160051
-3.937866	包	-0.02160052
-4.092671	包围	-0.02160052
-4.092671	包庇	-0.02160052
-3.937866	包括	-0.02160051
-4.092671	包袱	-0.02160052
-4.092671	包装	-0.02160052
-4.092671	包装物	-0.02160052
-3.816416	匈	-0.02160051
-3.937866	匈奴	-0.02160052
-4.092671	匕首	-0.02160051
-3.657064	化	-0.02160052
-3.937866	化合	-0.02160052
-4.092671	化学	-0.02160052
-4.092671	化学武器	-0.02160052
-4.092671	化身	-0.02160052
-4.092671	北	-0.02160052
-3.816416	北京	-0.02160052
-4.092671	北园	-0.02160052
-4.092671	北城	-0.02160052
-3.937866	北方	-0.02160051
-4.092671	北爱尔兰	-0.02160051
-3.937866	北约	-0.02160052
-3.937866	北部	-0.02160051
-3.081388	区	-0.06109165
-4.092671	区党委	-0.02160051
-3.937866	区内	-0.02160051
-3.657064	区别	-0.07955015
-4.092671	区别对待	-0.02160052
-4.092671	区域	-0.02160052
-3.937866	区外	-0.02160052
-3.937866	区委书记	-0.1464405
-4.092671	区长	-0.02160052
-3.937866	医	-0.02160051
-3.937866	医学	-0.02160052
-4.092671	医护人员	-0.02160052
-4.092671	医治	-0.02160052
-3.657064	医生	-0.02160051
-4.092671	医疗费	-0.02160051
-3.309043	医院	-0.04386131
-3.657064	十	-0.02160052
-4.092671	十七岁	-0.02160051
-4.092671	十三四	-0.02160052
-4.092671	十二大	-0.02160052
-4.092671	十二月	-0.02160052
-4.092671	十八日	-0.02160052
-3.657064	十几	-0.02160052
-3.816416	十分	-0.02160051
-4.092671	十四	-0.02160051
-4.092671	十年	-0.02160051
-4.092671	十度	-0.02160052
-4.092671	十月革命	-0.02160051
-4.092671	十点	-0.02160052
-4.092671	千	-0.02160052
-4.092671	千万富翁	-0.02160052
-4.092671	千古	-0.02160052
-4.092671	千真万确	-0.02160051
-3.816416	千米	-0.02160052
-4.092671	千里	-0.02160052
-3.816416	升	-0.02160052
-4.092671	升到	-0.02160052
-4.092671	升官	-0.02160052
-4.092671	升降	-0.02160052
-3.937866	午	-0.02160052
-4.092671	午后	-0.02160052
-3.937866	午夜	-0.02160051
-4.092671	午餐肉	-0.02160052
-4.092671	午饭	-0.02160052
-3.937866	半个	-0.02160051
-4.092671	半夜	-0.02160052
-4.092671	半小时	-0.02160052
-3.937866	半年	-0.02160051
-4.092671	半截	-0.02160052
-4.092671	半点	-0.02160052
-4.092671	华	-0.02160052
-4.092671	华严	-0.02160052
-4.092671	华北	-0.02160052
-4.092671	华工	-0.02160052
-4.092671	华星	-0.02160051
-4.092671	华里	-0.02160051
-4.092671	华隆	-0.02160052
-4.092671	协作	-0.02160052
-4.092671	协助	-0.02160052
-4.092671	协约国	-0.02160052
-3.937866	协议	-0.02160051
-4.092671	协调	-0.02160052
-4.092671	卑鄙无耻	-0.02160052
-4.092671	卓	-0.02160052
-4.092671	卓越	-0.02160051
-4.092671	单	-0.02160052
-4.092671	单井	-0.02160052
-3.540743	单位	-0.02160051
-4.092671	单独	-0.02160052
-3.816416	卖	-0.1007225
-4.092671	卖淫嫖娼	-0.02160052
-4.092671	卖给	-0.02160052
-4.092671	卖菜	-0.02160051
-3.937866	南	-0.02160052
-3.937866	南下	-0.02160051
-4.092671	南京	-0.02160052
-4.092671	南京军区	-0.02160052
-4.092671	南北	-0.02160052
-4.092671	南宁	-0.02160051
-4.092671	南屏	-0.02160052
-3.937866	南方	-0.02160052
-4.092671	南沙	-0.02160052
-4.092671	南河	-0.02160052
-4.092671	南澳	-0.02160052
-4.092671	博	-0.02160052
-4.092671	博览会	-0.02160051
-4.092671	卜凡	-0.02160052
-3.937866	占	-0.02160051
-4.092671	占领	-0.02160051
-3.937866	卡	-0.02160051
-4.092671	卡住	-0.02160051
-4.092671	卡拉	-0.02160052
-4.092671	卡特	-0.02160052
-4.092671	卡米	-0.02160052
-4.092671	卡连	-0.02160052
-4.092671	卢	-0.02160052
-4.092671	卢森堡	-0.02160052
-4.092671	卧床	-0.02160052
-3.937866	卫冕	-0.02160052
-3.816416	卫生	-0.02160051
-4.092671	卫生员	-0.02160052
-3.657064	印	-0.02160052
-4.092671	印刷	-0.02160052
-4.092671	印尼	-0.02160052
-3.657064	印度	-0.02160052
-4.092671	印度洋	-0.02160052
-3.937866	印有	-0.02160051
-3.816416	印染厂	-0.02160052
-4.092671	印第安	-0.02160052
-4.092671	印花	-0.02160052
-4.092671	危	-0.02160052
-3.657064	即	-0.02160052
-4.092671	即使	-0.02160052
-4.092671	即可	-0.02160052
-4.092671	即然	-0.02160052
-2.88517	却	-0.03205873
-3.937866	却是	-0.02160052
-3.937866	卷	-0.02160051
-4.092671	卷二	-0.02160052
-4.092671	卷曲	-0.02160052
-3.937866	卷烟厂	-0.02160052
-3.25297	厂	-0.02160052
-4.092671	厂子	-0.02160052
-4.092671	厂家	-0.02160052
-4.092671	厂房	-0.02160052
-4.092671	厂里	-0.02160051
-3.657064	厂长	-0.02160052
-3.937866	厄瓜多尔	-0.02160051
-3.937866	厅	-0.02160052
-4.092671	厅堂	-0.02160052
-4.092671	历代	-0.02160052
-4.092671	历任	-0.02160052
-4.092671	历程	-0.02160052
-3.937866	压	-0.1464405
-4.092671	压力	-0.02160052
-4.092671	压实	-0.02160052
-4.092671	压岁钱	-0.02160051
-4.092671	压抑	-0.02160052
-4.092671	压死	-0.02160052
-3.937866	压裂	-0.02160052
-4.092671	压轴	-0.02160051
-3.816416	厌恶	-0.02160051
-3.937866	厕所	-0.02160051
-3.449087	原	-0.02160052
-4.092671	原为	-0.02160052
-4.092671	原产	-0.02160051
-3.937866	原先	-0.02160052
-3.937866	原则	-0.02160051
-4.092671	原则上	-0.02160052
-3.816416	原因	-0.02160051
-3.937866	原始	-0.02160052
-3.657064	原子	-0.02160051
-4.092671	原定	-0.02160052
-3.816416	原料	-0.02160052
-4.092671	原是	-0.02160052
-3.937866	原油	-0.02160051
-4.092671	原著	-0.02160052
-4.092671	厨	-0.02160052
-4.092671	厨子	-0.02160052
-2.88517	去	-0.09381183
-3.540743	去年	-0.09326094
-4.092671	去年秋天	-0.02160052
-4.092671	去找	-0.02160052
-3.449087	县	-0.02160052
-4.092671	县医院	-0.02160052
-4.092671	县市	-0.02160051
-4.092671	县政协	-0.02160052
-4.092671	县级	-0.02160052
-3.937866	参	-0.02160051
-3.937866	参与	-0.02160051
-4.092671	参事	-0.02160051
-3.25297	参加	-0.04640668
-4.092671	参议院	-0.02160052
-2.419565	又	-0.0368299
-4.092671	又是	-0.02160052
-3.937866	又要	-0.02160052
-3.937866	叉	-0.02160051
-3.449087	及	-0.02160052
-4.092671	及时	-0.02160052
-4.092671	友	-0.02160052
-4.092671	友好	-0.02160052
-3.937866	友谊	-0.02160051
-3.540743	双	-0.02160051
-4.092671	双安	-0.02160052
-4.092671	双手	-0.02160052
-4.092671	双打	-0.02160052
-4.092671	双拥	-0.02160052
-3.540743	双方	-0.02160051
-4.092671	双耳	-0.02160052
-4.092671	双臂	-0.02160052
-3.816416	反	-0.02160051
-4.092671	反动派	-0.02160052
-3.937866	反对	-0.02160052
-4.092671	反应	-0.02160052
-4.092671	反思	-0.02160052
-4.092671	反映	-0.02160052
-3.937866	反正	-0.02160051
-4.092671	反而	-0.02160052
-3.937866	发	-0.02160052
-4.092671	发下	-0.02160052
-4.092671	发令枪	-0.02160052
-4.092671	发作	-0.02160051
-4.092671	发出	-0.02160052
-4.092671	发动	-0.02160052
-4.092671	发动机	-0.02160051
-3.937866	发售	-0.02160052
-3.203315	发展	-0.02160052
-4.092671	发布	-0.02160052
-4.092671	发烟	-0.02160052
-3.937866	发烧	-0.02160051
-3.309043	发现	-0.02160052
-3.449087	发生	-0.02160052
-4.092671	发生意外	-0.02160052
-4.092671	发病	-0.02160052
-4.092671	发芽	-0.02160052
-3.816416	发表	-0.02160052
-4.092671	发言人	-0.02160052
-4.092671	发财	-0.02160052
-4.092671	发音	-0.02160052
-4.092671	取代	-0.02160051
-4.092671	取决于	-0.02160052
-3.937866	取得	-0.02160051
-3.937866	受	-0.02160051
-4.092671	受伤	-0.02160051
-3.937866	受到	-0.02160052
-4.092671	受奖	-0.02160052
-4.092671	受孕	-0.02160051
-4.092671	受宠	-0.02160052
-4.092671	受欢迎	-0.02160052
-4.092671	受贿	-0.02160052
-4.092671	受贿罪	-0.02160052
-4.092671	受阻	-0.02160051
-4.092671	变	-0.02160052
-4.092671	变化	-0.02160052
-3.937866	变得	-0.02160052
-4.092671	变成	-0.02160052
-4.092671	变相	-0.02160051
-4.092671	变质	-0.02160051
-4.092671	叛乱	-0.02160052
-3.937866	叠	-0.02160052
-4.092671	叠嶂	-0.02160052
-3.081388	口	-0.02160052
-3.657064	口岸	-0.07955015
-4.092671	口气	-0.02160051
-4.092671	口镇	-0.02160052
-3.657064	古	-0.02160052
-3.937866	古代	-0.02160052
-4.092671	古希腊	-0.02160052
-4.092671	古建筑	-0.02160052
-4.092671	古朴	-0.02160052
-4.092671	古籍	-0.02160052
-4.092671	古罗马	-0.02160051
-4.092671	古雅	-0.02160052
-3.937866	句	-0.02160051
-4.092671	另	-0.02160052
-3.937866	另一种	-0.02160051
-4.092671	另外	-0.02160052
-4.092671	另有	-0.02160052
-3.203315	只	-0.02160052
-4.092671	只好	-0.02160052
-3.657064	只有	-0.02160052
-4.092671	只用	-0.02160052
-4.092671	只缘	-0.02160052
-3.816416	只能	-0.02160051
-4.092671	只要	-0.02160051
-4.092671	只见	-0.02160052
-3.25297	叫	-0.02160052
-4.092671	叫卖	-0.02160052
-4.092671	召	-0.02160052
-4.092671	叮咛	-0.02160051
-4.092671	叮当	-0.02160052
-2.932796	可	-0.02160051
-4.092671	可为	-0.02160051
-3.25297	可以	-0.02160052
-4.092671	可可	-0.02160051
-3.937866	可是	-0.02160052
-4.092671	可爱的	-0.02160052
-3.816416	可能	-0.02160051
-3.937866	可能性	-0.1464405
-4.092671	可见	-0.02160052
-4.092671	可谓	-0.02160052
-3.816416	台	-0.02160051
-4.092671	台上	-0.02160052
-3.937866	台湾	-0.02160052
-3.816416	史	-0.02160051
-3.816416	右	-0.02160052
-4.092671	右侧	-0.02160052
-3.937866	右手	-0.02160052
-4.092671	右旋	-0.02160051
-4.092671	右臂	-0.02160052
-3.816416	叶	-0.1007225
-4.092671	叶利钦	-0.02160051
-4.092671	叶某	-0.02160051
-3.816416	号	-0.02160051
-3.937866	司	-0.02160052
-4.092671	司令员	-0.02160052
-3.937866	司令部	-0.02160052
-3.937866	司机	-0.02160051
-4.092671	叹息	-0.02160052
-2.986296	吃	-0.04791094
-4.092671	吃不下	-0.02160052
-4.092671	吃喝	-0.02160052
-4.092671	吃掉	-0.02160052
-4.092671	吃紧	-0.02160052
-4.092671	吃苦	-0.02160052
-4.092671	吃药	-0.02160052
-4.092671	吃饭	-0.02160052
-3.657064	各	-0.02160052
-4.092671	各人	-0.02160052
-3.937866	各区	-0.02160052
-4.092671	各地	-0.02160052
-4.092671	各式	-0.02160051
-4.092671	各界	-0.02160052
-3.816416	各种	-0.02160052
-3.937866	各类	-0.02160051
-3.937866	各级	-0.02160052
-4.092671	各自	-0.02160052
-4.092671	合一	-0.02160052
-4.092671	合作	-0.02160051
-4.092671	合力	-0.02160052
-3.937866	合同	-0.02160052
-4.092671	合家欢	-0.02160052
-4.092671	合并	-0.02160052
-4.092671	合影	-0.02160052
-3.937866	合理	-0.02160052
-4.092671	合编	-0.02160051
-4.092671	合肥	-0.02160052
-4.092671	合龙	-0.02160052
-4.092671	吉	-0.02160051
-4.092671	吉林	-0.02160052
-4.092671	吊	-0.02160052
-3.203315	同	-0.02160052
-4.092671	同一个	-0.02160052
-4.092671	同乡	-0.02160052
-3.937866	同事	-0.02160052
-4.092671	同住	-0.02160052
-4.092671	同学们	-0.02160052
-4.092671	同学家	-0.02160052
-3.657064	同志	-0.02160051
-4.092671	同意	-0.02160052
-3.540743	同时	-0.02160052
-4.092671	同月	-0.02160052
-3.657064	同样	-0.02160052
-4.092671	同桌	-0.02160052
-4.092671	同级	-0.02160052
-3.937866	同胞	-0.02160052
-3.449087	名	-0.02160052
-4.092671	名为	-0.02160052
-4.092671	名列	-0.02160052
-3.937866	名叫	-0.02160051
-4.092671	名将	-0.02160052
-4.092671	名扬	-0.02160052
-4.092671	名演员	-0.02160052
-4.092671	名誉	-0.02160052
-2.734273	后	-0.02889474
-4.092671	后人	-0.02160052
-3.816416	后代	-0.02160051
-4.092671	后勤部	-0.02160052
-4.092671	后来	-0.02160052
-4.092671	后窗	-0.02160052
-4.092671	后腿	-0.02160052
-4.092671	后院	-0.02160052
-4.092671	后面	-0.02160052
-4.092671	吐	-0.02160052
-3.15876	向	-0.04007105
-4.092671	向往	-0.02160052
-3.540743	吕	-0.02160051
-4.092671	吗	-0.02160052
-4.092671	君子	-0.02160052
-3.937866	吞	-0.02160052
-4.092671	吞吞吐吐	-0.02160052
-4.092671	吞没	-0.02160051
-3.937866	否决	-0.02160052
-3.816416	否则	-0.02160051
-4.092671	否定	-0.02160052
-3.373444	吨	-0.02160052
-4.092671	吩咐	-0.02160052
-3.540743	含	-0.02160051
-4.092671	含有	-0.02160052
-4.092671	含蓄	-0.02160051
-3.937866	听	-0.02160052
-4.092671	听不到	-0.02160052
-3.937866	听到	-0.02160051
-4.092671	听力	-0.02160052
-4.092671	听来	-0.02160052
-4.092671	听者	-0.02160052
-3.937866	听见	-0.02160052
-3.816416	听说	-0.02160051
-3.816416	启	-0.02160051
-3.816416	吴	-0.02160051
-4.092671	吴孟超	-0.02160052
-4.092671	吵	-0.02160052
-4.092671	吸引	-0.02160052
-4.092671	吸食	-0.02160052
-3.816416	吹	-0.1007225
-4.092671	吹吹	-0.02160052
-4.092671	吹散	-0.02160052
-4.092671	吹牛	-0.02160052
-4.092671	呀	-0.02160052
-3.937866	呆	-0.02160051
-4.092671	呆呆	-0.02160052
-3.657064	呈	-0.02160052
-4.092671	告	-0.02160052
-4.092671	告知	-0.02160052
-4.092671	告诉	-0.02160052
-4.092671	呜呜	-0.02160052
-3.657064	呢	-0.07955015
-3.937866	周	-0.02160052
-3.449087	周围	-0.05936215
-4.092671	周旋	-0.02160052
-4.092671	周末	-0.02160052
-4.092671	周正	-0.02160052
-4.092671	周维	-0.02160052
-3.937866	味	-0.02160052
-3.937866	味儿	-0.02160052
-4.092671	呼吁	-0.02160052
-4.092671	呼吸困难	-0.02160052
-4.092671	命	-0.02160052
-3.816416	命令	-0.02160051
-4.092671	命运	-0.02160052
-2.293193	和	-0.02734889
-4.092671	和平区	-0.02160051
-4.092671	和成	-0.02160052
-4.092671	和林	-0.02160052
-4.092671	咔嚓	-0.02160052
-4.092671	咕噜	-0.02160051
-4.092671	咖啡	-0.02160052
-4.092671	咧	-0.02160052
-4.092671	咨询业	-0.02160052
-4.092671	咬	-0.02160051
-3.937866	咬牙	-0.02160051
-4.092671	咱	-0.02160052
-4.092671	咸菜	-0.02160051
-3.937866	咸阳	-0.02160052
-3.937866	咸阳市	-0.02160052
-4.092671	咽	-0.02160052
-4.092671	哀	-0.02160052
-3.657064	品	-0.02160052
-3.937866	品位	-0.1464406
-4.092671	品尝	-0.02160052
-4.092671	品种	-0.02160052
-4.092671	哄抢	-0.02160052
-4.092671	哇	-0.02160052
-3.309043	哈	-0.02160052
-4.092671	哈利	-0.02160052
-4.092671	哈梅内伊	-0.02160052
-4.092671	哈瓦	-0.02160052
-3.816416	响	-0.02160052
-3.937866	哑	-0.02160052
-4.092671	哥	-0.02160052
-4.092671	哥伦比亚	-0.02160052
-4.092671	哨位	-0.02160051
-4.092671	哨所	-0.02160052
-4.092671	哪	-0.02160052
-3.937866	哪儿	-0.02160052
-3.540743	哭	-0.02160052
-3.937866	哭声	-0.02160052
-4.092671	哭泣	-0.02160051
-4.092671	哲	-0.02160052
-4.092671	哲学家	-0.02160052
-4.092671	哼哼唧唧	-0.02160051
-4.092671	哽咽	-0.02160052
-4.092671	唇	-0.02160052
-4.092671	唉	-0.02160052
-3.540743	唐	-0.02160051
-4.092671	唐三彩	-0.02160052
-4.092671	唐代	-0.02160051
-4.092671	唐克	-0.02160052
-3.937866	唐明皇	-0.02160052
-4.092671	唐朝	-0.02160052
-4.092671	唐玄宗	-0.02160051
-4.092671	唠嗑	-0.02160051
-4.092671	售货员	-0.02160052
-4.092671	唯有	-0.02160052
-3.937866	唱片	-0.02160052
-4.092671	唾沫	-0.02160052
-4.092671	啃	-0.02160052
-3.816416	商	-0.02160051
-3.657064	商业	-0.02160052
-3.937866	商场	-0.02160051
-4.092671	商店	-0.02160052
-4.092671	商贩	-0.02160052
-4.092671	商贸	-0.02160052
-3.25297	啊	-0.02160052
-4.092671	啊啊啊	-0.02160052
-4.092671	啡	-0.02160051
-3.657064	啥	-0.02160052
-3.937866	啦	-0.02160052
-4.092671	喂	-0.02160052
-4.092671	喂养	-0.02160052
-4.092671	喂药	-0.02160052
-3.937866	喂食	-0.02160052
-4.092671	喉咙	-0.02160052
-4.092671	喉管	-0.02160052
-4.092671	喊声	-0.02160051
-3.816416	喜	-0.02160052
-4.092671	喜悦	-0.02160052
-4.092671	喜爱	-0.02160051
-4.092671	喜讯	-0.02160052
-4.092671	喝	-0.02160052
-4.092671	喝完	-0.02160052
-4.092671	喷	-0.02160052
-4.092671	喷涂	-0.02160051
-4.092671	喷血	-0.02160052
-3.937866	嗅	-0.02160051
-4.092671	嗓子	-0.02160051
-4.092671	嗓音	-0.02160052
-4.092671	嗡	-0.02160052
-3.937866	嗡嗡	-0.02160051
-4.092671	嘈杂	-0.02160052
-4.092671	嘉宾	-0.02160052
-4.092671	嘉陵江	-0.02160052
-4.092671	嘎	-0.02160052
-4.092671	嘱	-0.02160051
-4.092671	嘲弄	-0.02160052
-3.937866	嘴	-0.02160052
-4.092671	嘴唇	-0.02160052
-4.092671	嘴里	-0.02160052
-4.092671	嘶	-0.02160051
-4.092671	噌噌噌	-0.02160051
-4.092671	噩耗	-0.02160052
-4.092671	噪声	-0.02160052
-4.092671	嚼	-0.02160051
-3.309043	四	-0.02160052
-4.092671	四个	-0.02160052
-4.092671	四人帮	-0.02160051
-4.092671	四周	-0.02160052
-4.092671	四季	-0.02160052
-4.092671	四川	-0.02160052
-4.092671	四平市	-0.02160052
-3.937866	四方	-0.02160052
-4.092671	四月	-0.02160051
-4.092671	四溢	-0.02160051
-4.092671	四面八方	-0.02160051
-4.092671	回乡	-0.02160051
-4.092671	回到家	-0.02160052
-4.092671	回到房间	-0.02160052
-4.092671	回升	-0.02160051
-4.092671	回去	-0.02160052
-4.092671	回头	-0.02160052
-4.092671	回娘家	-0.02160051
-4.092671	回家	-0.02160052
-4.092671	回廊	-0.02160052
-4.092671	回扣	-0.02160052
-4.092671	回收	-0.02160052
-4.092671	回旋	-0.02160052
-4.092671	回来	-0.02160052
-2.90833	因	-0.0325883
-3.203315	因为	-0.02160052
-3.449087	因此	-0.02160052
-4.092671	因素	-0.02160052
-4.092671	因而	-0.02160052
-3.816416	团	-0.02160052
-4.092671	团体赛	-0.02160051
-4.092671	团团	-0.02160052
-4.092671	团结	-0.02160052
-3.937866	团部	-0.02160052
-3.937866	团长	-0.02160052
-4.092671	囤	-0.02160052
-3.657064	园	-0.02160052
-4.092671	园艺场	-0.02160052
-4.092671	园里	-0.02160051
-4.092671	困扰	-0.02160052
-4.092671	困难	-0.02160052
-4.092671	围	-0.02160052
-4.092671	围住	-0.02160052
-4.092671	围栏	-0.02160051
-3.937866	围绕	-0.02160052
-4.092671	固定汇率	-0.02160052
-4.092671	固镇	-0.02160052
-3.540743	国	-0.06732509
-4.092671	国会	-0.02160051
-3.657064	国内	-0.02160052
-4.092671	国务委员	-0.02160052
-3.937866	国务院	-0.02160051
-4.092671	国和	-0.02160052
-3.657064	国外	-0.02160052
-4.092671	国奥队	-0.02160052
-3.25297	国家	-0.04640668
-4.092671	国库	-0.02160052
-4.092671	国新	-0.02160052
-4.092671	国是	-0.02160051
-4.092671	国有企业	-0.02160052
-4.092671	国林	-0.02160052
-4.092671	国民党	-0.02160052
-3.816416	国王	-0.02160051
-3.937866	国籍	-0.02160051
-4.092671	国臣	-0.02160052
-4.092671	国防大学	-0.02160052
-4.092671	国际	-0.02160052
-4.092671	国际市场	-0.02160051
-4.092671	国际形势	-0.02160051
-4.092671	国难	-0.02160052
-3.657064	图	-0.02160052
-4.092671	图文并茂	-0.02160051
-3.816416	图案	-0.02160052
-4.092671	图纸	-0.02160051
-4.092671	图谋	-0.02160052
-3.937866	圆	-0.02160052
-3.816416	圆形	-0.02160051
-4.092671	圆柱	-0.02160052
-4.092671	圆润	-0.02160051
-3.937866	圆满	-0.02160051
-4.092671	圆白菜	-0.02160052
-3.657064	圈	-0.05376241
-4.092671	圈层	-0.02160051
-3.657064	土	-0.02160052
-4.092671	土层	-0.02160052
-4.092671	土窑	-0.02160052
-2.190841	在	-0.02724914
-3.540743	在于	-0.02160052
-4.092671	在此	-0.02160052
-3.657064	在这里	-0.02160052
-4.092671	在逃犯	-0.02160052
-4.092671	圩	-0.02160052
-2.718624	地	-0.02914846
-3.816416	地上	-0.02160052
-4.092671	地下	-0.02160051
-3.373444	地区	-0.02160051
-4.092671	地名	-0.02160052
-4.092671	地域	-0.02160052
-3.937866	地壳	-0.02160051
-4.092671	地处	-0.02160052
-4.092671	地市	-0.02160052
-3.937866	地方	-0.02160052
-4.092671	地望	-0.02160051
-4.092671	地毯	-0.02160052
-4.092671	地理位置	-0.02160052
-4.092671	地瓜	-0.02160052
-3.309043	场	-0.02160052
-4.092671	场上	-0.02160051
-4.092671	场内	-0.02160052
-3.937866	场所	-0.02160052
-4.092671	场院	-0.02160052
-4.092671	场面	-0.02160052
-4.092671	均	-0.02160052
-4.092671	均为	-0.02160052
-4.092671	均匀	-0.02160052
-4.092671	坏	-0.02160051
-4.092671	坏人	-0.02160052
-4.092671	坏掉	-0.02160052
-4.092671	坏毛病	-0.02160052
-4.092671	坏脾气	-0.02160052
-4.092671	坐	-0.02160052
-4.092671	坐上	-0.02160052
-4.092671	坐坐	-0.02160052
-3.937866	坑	-0.02160052
-4.092671	坑害	-0.02160052
-3.449087	块	-0.05936215
-4.092671	块儿	-0.02160052
-4.092671	坚	-0.02160052
-4.092671	坚定	-0.02160051
-4.092671	坚持	-0.02160052
-4.092671	坚硬	-0.02160051
-4.092671	坝	-0.02160051
-3.816416	坡	-0.02160051
-4.092671	坡度	-0.02160051
-4.092671	坦	-0.02160052
-4.092671	坨	-0.02160052
-4.092671	坯	-0.02160052
-4.092671	坳	-0.02160052
-4.092671	型材	-0.02160052
-3.816416	垦	-0.02160052
-4.092671	垮	-0.02160052
-3.816416	埃	-0.02160051
-4.092671	埃斯	-0.02160052
-3.937866	埃米尔	-0.02160051
-4.092671	埋	-0.02160052
-4.092671	埋下	-0.02160052
-3.937866	城	-0.02160052
-3.937866	城市	-0.02160052
-4.092671	城里	-0.02160051
-3.937866	培养	-0.02160051
-3.937866	培育	-0.02160052
-3.816416	培训	-0.02160052
-3.937866	基地	-0.02160052
-4.092671	基多	-0.02160052
-3.937866	基层	-0.02160052
-4.092671	基本	-0.02160052
-4.092671	基督教	-0.02160052
-3.816416	基础	-0.02160052
-4.092671	基诺族	-0.02160052
-4.092671	堀	-0.02160052
-4.092671	堂	-0.02160052
-4.092671	堂屋	-0.02160052
-4.092671	堂皇	-0.02160051
-4.092671	堆	-0.02160052
-4.092671	堑	-0.02160052
-3.937866	堤	-0.02160052
-4.092671	堪培拉	-0.02160051
-4.092671	堵住	-0.02160052
-4.092671	塌	-0.02160051
-4.092671	塑料	-0.02160052
-4.092671	塑造	-0.02160052
-4.092671	塔	-0.02160052
-4.092671	塔山	-0.02160052
-4.092671	塘沽区	-0.02160052
-3.937866	塞	-0.02160051
-4.092671	塞尔维亚人	-0.02160051
-4.092671	填	-0.02160052
-4.092671	境内	-0.02160051
-3.937866	境界	-0.1464405
-3.937866	墓	-0.02160051
-4.092671	墓穴	-0.02160052
-3.937866	墙	-0.02160051
-4.092671	墙上	-0.02160052
-4.092671	墙根	-0.02160052
-4.092671	墙脚	-0.02160052
-3.937866	增	-0.02160051
-4.092671	增值税	-0.02160052
-3.937866	增加	-0.02160052
-4.092671	增幅	-0.02160052
-4.092671	增强	-0.02160051
-4.092671	增援	-0.02160052
-4.092671	增效	-0.02160051
-3.937866	墨	-0.02160052
-4.092671	墩	-0.02160052
-3.937866	壁	-0.02160052
-4.092671	壕	-0.02160052
-4.092671	士	-0.02160052
-4.092671	士人	-0.02160052
-4.092671	壮	-0.02160052
-4.092671	壮烈牺牲	-0.02160052
-3.937866	壮观	-0.02160052
-3.309043	声	-0.04960949
-4.092671	声明	-0.02160052
-3.937866	声音	-0.02160052
-3.540743	处	-0.0673251
-4.092671	处于	-0.02160052
-4.092671	备	-0.02160051
-4.092671	备战	-0.02160052
-4.092671	复赛	-0.02160052
-3.937866	夏	-0.02160051
-4.092671	夏夜	-0.02160052
-2.932796	外	-0.02160052
-3.937866	外乡人	-0.02160051
-4.092671	外交	-0.02160052
-4.092671	外交人员	-0.02160052
-4.092671	外出	-0.02160052
-4.092671	外务	-0.02160052
-4.092671	外向	-0.02160052
-4.092671	外商	-0.02160052
-4.092671	外围	-0.02160052
-4.092671	外国	-0.02160052
-3.937866	外国人	-0.02160052
-4.092671	外圈	-0.02160051
-4.092671	外地	-0.02160052
-4.092671	外头	-0.02160051
-3.937866	外婆	-0.02160051
-4.092671	外层	-0.02160051
-3.937866	外币	-0.02160052
-4.092671	外延	-0.02160052
-4.092671	外形	-0.02160051
-4.092671	外敷	-0.02160051
-4.092671	外文	-0.02160052
-4.092671	外水	-0.02160052
-4.092671	外用	-0.02160052
-4.092671	外省	-0.02160052
-4.092671	外科	-0.02160052
-3.937866	外表	-0.02160051
-4.092671	外观	-0.02160051
-3.816416	外语	-0.02160051
-3.816416	外贸	-0.02160052
-3.449087	外资	-0.05936215
-3.816416	外部	-0.02160051
-4.092671	外销	-0.02160052
-3.816416	外长	-0.02160052
-4.092671	外面	-0.02160052
-3.118354	多	-0.03862201
-4.092671	多个	-0.02160052
-4.092671	多久	-0.02160052
-4.092671	多半	-0.02160052
-4.092671	多名	-0.02160052
-4.092671	多头	-0.02160052
-4.092671	多媒体	-0.02160052
-3.657064	多少	-0.02160052
-4.092671	多怪	-0.02160051
-4.092671	多斯桑托斯	-0.02160052
-4.092671	多方	-0.02160052
-3.937866	多来	-0.02160051
-4.092671	多样	-0.02160052
-4.092671	多次	-0.02160051
-4.092671	多种	-0.02160052
-3.816416	夜	-0.02160051
-4.092671	夜一	-0.02160052
-3.657064	夜晚	-0.02160052
-4.092671	夜空	-0.02160052
-4.092671	夜里	-0.02160052
-4.092671	夜间	-0.02160052
-4.092671	够	-0.02160052
-2.986296	大	-0.02160052
-4.092671	大众	-0.02160051
-4.092671	大会	-0.02160051
-3.937866	大使	-0.02160051
-4.092671	大别山	-0.02160052
-4.092671	大厅	-0.02160052
-3.937866	大同	-0.1464405
-4.092671	大块	-0.02160052
-4.092671	大型	-0.02160052
-4.092671	大多	-0.02160052
-4.092671	大多数	-0.02160052
-4.092671	大大	-0.02160052
-4.092671	大夫	-0.02160052
-4.092671	大嫂	-0.02160052
-3.816416	大家	-0.02160052
-4.092671	大寨	-0.02160051
-3.937866	大小	-0.02160052
-4.092671	大幅度	-0.02160052
-4.092671	大平	-0.02160052
-4.092671	大弯	-0.02160052
-4.092671	大忙人	-0.02160052
-4.092671	大惊失色	-0.02160051
-4.092671	大户	-0.02160052
-4.092671	大提琴	-0.02160052
-4.092671	大搞	-0.02160052
-4.092671	大棚	-0.02160052
-4.092671	大海	-0.02160051
-4.092671	大涨	-0.02160051
-4.092671	大田	-0.02160052
-4.092671	大眼睛	-0.02160052
-4.092671	大篷车	-0.02160052
-4.092671	大约	-0.02160052
-4.092671	大群	-0.02160052
-4.092671	大胆	-0.02160052
-4.092671	大臣	-0.02160052
-3.937866	大蒜	-0.02160051
-4.092671	大道	-0.02160051
-3.937866	大部分	-0.02160052
-4.092671	大都	-0.02160052
-3.816416	大量	-0.02160052
-4.092671	大陆	-0.02160051
-4.092671	大马哈鱼	-0.02160052
-3.657064	天	-0.02160052
-4.092671	天仙	-0.02160052
-4.092671	天公	-0.02160052
-4.092671	天内	-0.02160052
-4.092671	天地	-0.02160052
-4.092671	天天说	-0.02160052
-4.092671	天心	-0.02160052
-4.092671	天河	-0.02160052
-3.816416	天津	-0.02160051
-4.092671	天然	-0.02160052
-4.092671	天祥	-0.02160052
-4.092671	天雨	-0.02160052
-4.092671	天霞	-0.02160052
-4.092671	天高	-0.02160052
-3.937866	太	-0.02160052
-4.092671	太原	-0.02160052
-4.092671	太原市	-0.02160052
-4.092671	太多	-0.02160052
-3.816416	太太	-0.02160052
-4.092671	太平	-0.02160052
-4.092671	太湖	-0.02160052
-4.092671	太空船	-0.02160052
-3.657064	太行	-0.02160052
-3.937866	太阳	-0.02160052
-4.092671	太阳伞	-0.02160052
-3.816416	夫	-0.02160052
-3.937866	夫人	-0.02160052
-3.816416	夫妇	-0.02160051
-4.092671	失火	-0.02160052
-3.540743	头	-0.02160052
-3.937866	头发	-0.02160051
-4.092671	头昏	-0.02160051
-4.092671	头晕	-0.02160052
-4.092671	头盔	-0.02160052
-4.092671	头羊	-0.02160052
-4.092671	头顶	-0.02160052
-3.816416	夹	-0.1007225
-4.092671	夹杂	-0.02160052
-3.937866	夺	-0.02160051
-4.092671	夺得	-0.02160052
-4.092671	夺走	-0.02160052
-3.657064	奇	-0.02160052
-4.092671	奇怪	-0.02160052
-4.092671	奇缺	-0.02160051
-4.092671	奈	-0.02160052
-4.092671	奈尔	-0.02160052
-4.092671	奋勇	-0.02160052
-4.092671	奋战	-0.02160052
-4.092671	奎尔	-0.02160052
-3.937866	契	-0.02160051
-4.092671	奔去	-0.02160052
-4.092671	奔向	-0.02160052
-4.092671	奔波	-0.02160051
-3.937866	奔走	-0.02160051
-4.092671	奔跑	-0.02160052
-4.092671	奖品	-0.02160052
-3.816416	套	-0.02160051
-4.092671	套件	-0.02160052
-3.816416	奥	-0.02160051
-4.092671	奥尼尔	-0.02160051
-4.092671	奥斯卡	-0.02160051
-4.092671	奥斯维辛	-0.02160052
-3.816416	奥运	-0.02160051
-3.937866	奥运会	-0.02160052
-3.657064	女	-0.02160052
-3.937866	女儿	-0.02160051
-4.092671	女单	-0.02160052
-4.092671	女友	-0.02160052
-4.092671	女子	-0.02160051
-4.092671	女宾	-0.02160051
-4.092671	女性	-0.02160052
-3.937866	女装	-0.02160051
-4.092671	女队	-0.02160052
-4.092671	女鞋	-0.02160052
-3.373444	奶	-0.02160052
-4.092671	奶味	-0.02160051
-3.937866	奶奶	-0.02160051
-4.092671	奶牛	-0.02160052
-4.092671	奶粉	-0.02160052
-2.734273	她	-0.05800388
-4.092671	她们	-0.02160052
-4.092671	她说	-0.02160052
-3.309043	好	-0.02160052
-4.092671	好习惯	-0.02160052
-4.092671	好事	-0.02160052
-4.092671	好人	-0.02160051
-4.092671	好像	-0.02160052
-4.092671	好玩	-0.02160052
-4.092671	好生	-0.02160052
-4.092671	好看	-0.02160052
-4.092671	好评	-0.02160052
-3.047324	如	-0.02160051
-3.937866	如今	-0.02160051
-4.092671	如何	-0.02160052
-4.092671	如同	-0.02160052
-4.092671	如数	-0.02160052
-3.657064	如果	-0.02160052
-3.657064	如此	-0.02160052
-4.092671	妄	-0.02160052
-4.092671	妇产科	-0.02160052
-4.092671	妇人	-0.02160051
-4.092671	妇女儿童	-0.02160052
-3.937866	妈	-0.02160051
-4.092671	妈的	-0.02160052
-4.092671	妊娠	-0.02160052
-4.092671	妓女	-0.02160052
-4.092671	妖孽	-0.02160052
-4.092671	妙	-0.02160052
-4.092671	妙语	-0.02160052
-4.092671	妙趣横生	-0.02160052
-4.092671	妩媚	-0.02160052
-4.092671	妹夫	-0.02160051
-3.937866	妹妹	-0.02160051
-4.092671	妻女	-0.02160052
-3.816416	妻子	-0.02160052
-4.092671	妾	-0.02160051
-4.092671	姆	-0.02160052
-3.937866	姊妹	-0.02160052
-4.092671	始终	-0.02160052
-4.092671	姐们儿	-0.02160052
-4.092671	姐妹	-0.02160052
-4.092671	姐妹们	-0.02160052
-3.937866	姐妹俩	-0.02160051
-4.092671	姐姐	-0.02160052
-3.937866	姑娘	-0.02160052
-4.092671	姑爷	-0.02160052
-4.092671	委	-0.02160052
-4.092671	委内瑞拉	-0.02160051
-3.937866	委员	-0.02160051
-3.937866	委托	-0.02160051
-4.092671	姚	-0.02160052
-4.092671	姨	-0.02160052
-4.092671	姻缘	-0.02160052
-3.937866	威胁	-0.02160052
-3.657064	娃	-0.02160052
-3.937866	娃儿	-0.02160051
-4.092671	娃哈哈	-0.02160052
-4.092671	娃娃脸	-0.02160052
-4.092671	娃娃鱼	-0.02160051
-4.092671	娃子	-0.02160052
-4.092671	娇妻	-0.02160052
-3.816416	娘	-0.02160052
-4.092671	娘娘	-0.02160051
-4.092671	娘家	-0.02160052
-3.937866	娜	-0.02160052
-4.092671	娱乐业	-0.02160052
-4.092671	娱乐城	-0.02160052
-4.092671	娱乐片	-0.02160052
-4.092671	娶	-0.02160051
-4.092671	婆娑	-0.02160052
-4.092671	婆婆	-0.02160052
-4.092671	婉言谢绝	-0.02160052
-4.092671	婚姻	-0.02160052
-4.092671	婚期	-0.02160052
-4.092671	婚礼	-0.02160052
-3.816416	婴儿	-0.02160051
-4.092671	嫂	-0.02160051
-4.092671	嫌疑犯	-0.02160052
-4.092671	嫡亲	-0.02160052
-4.092671	嫣	-0.02160052
-3.816416	嫩	-0.02160051
-4.092671	嫩嫩	-0.02160051
-4.092671	嬉	-0.02160052
-3.816416	子	-0.02160052
-4.092671	子一	-0.02160052
-4.092671	子元	-0.02160052
-4.092671	子可	-0.02160052
-4.092671	子弟兵	-0.02160052
-3.937866	孔	-0.02160052
-4.092671	孔子	-0.02160051
-4.092671	孔雀	-0.02160052
-3.937866	字	-0.02160051
-4.092671	存	-0.02160051
-3.937866	存在	-0.02160051
-4.092671	存活	-0.02160052
-3.25297	孙	-0.02160052
-4.092671	孙儿	-0.02160051
-4.092671	孙女	-0.02160052
-3.937866	孙子	-0.02160052
-4.092671	孟	-0.02160052
-4.092671	季	-0.02160052
-4.092671	季军	-0.02160052
-4.092671	季节	-0.02160052
-4.092671	孤单	-0.02160052
-3.937866	孥	-0.02160051
-3.373444	学习	-0.02160052
-4.092671	学会	-0.02160051
-4.092671	学养	-0.02160051
-3.937866	学员	-0.02160052
-4.092671	学年	-0.02160052
-4.092671	学文	-0.02160052
-4.092671	学校	-0.02160052
-4.092671	学派	-0.02160052
-4.092671	学生	-0.02160052
-3.816416	学者	-0.02160052
-4.092671	学语文	-0.02160052
-3.816416	学院	-0.02160052
-4.092671	孩子	-0.02160052
-3.937866	孩子们	-0.02160052
-4.092671	孵卵	-0.02160052
-4.092671	宁儿	-0.02160052
-4.092671	宁愿	-0.02160052
-3.816416	宁波	-0.02160052
-4.092671	宁肯	-0.02160052
-3.373444	它	-0.04386133
-4.092671	宇	-0.02160052
-3.937866	安	-0.02160051
-4.092671	安东	-0.02160052
-4.092671	安保	-0.02160052
-3.816416	安全	-0.02160052
-4.092671	安全模式	-0.02160051
-4.092671	安好	-0.02160051
-3.937866	安宁	-0.02160051
-4.092671	安息	-0.02160052
-3.816416	安排	-0.02160052
-4.092671	安民	-0.02160052
-4.092671	安然	-0.02160052
-4.092671	安第斯	-0.02160052
-4.092671	安葬	-0.02160052
-4.092671	安详	-0.02160052
-4.092671	安达市	-0.02160051
-4.092671	安静	-0.02160051
-4.092671	宋	-0.02160052
-4.092671	宋庆龄	-0.02160052
-4.092671	宋真宗	-0.02160052
-4.092671	宋祖英	-0.02160052
-3.540743	完	-0.0673251
-3.937866	完了	-0.02160051
-3.937866	完全	-0.02160052
-4.092671	完善	-0.02160052
-3.937866	完成	-0.02160052
-4.092671	完成任务	-0.02160052
-4.092671	完整	-0.02160051
-4.092671	完毕	-0.02160052
-3.937866	完美	-0.02160052
-4.092671	完美结合	-0.02160051
-3.657064	宗	-0.02160052
-4.092671	宗庆后	-0.02160052
-4.092671	宗教	-0.02160051
-4.092671	官	-0.02160052
-3.937866	官兵	-0.02160052
-4.092671	官军	-0.02160052
-4.092671	官员	-0.02160052
-4.092671	官方	-0.02160052
-4.092671	官邸	-0.02160052
-3.937866	定	-0.02160051
-4.092671	定出	-0.02160052
-4.092671	定力	-0.02160052
-4.092671	定县	-0.02160052
-4.092671	定慧寺	-0.02160052
-4.092671	定时炸弹	-0.02160052
-4.092671	宛若	-0.02160052
-4.092671	宝	-0.02160052
-4.092671	宝贝	-0.02160052
-4.092671	实业	-0.02160052
-3.816416	实现	-0.02160051
-4.092671	实用性	-0.02160052
-3.816416	实行	-0.02160051
-4.092671	实诚	-0.02160051
-4.092671	实际	-0.02160052
-3.937866	实际上	-0.02160051
-4.092671	实验	-0.02160052
-4.092671	宠儿	-0.02160052
-3.937866	审批	-0.02160052
-4.092671	客	-0.02160052
-3.937866	客人	-0.02160051
-4.092671	客厅	-0.02160051
-4.092671	客源	-0.02160052
-4.092671	客轮	-0.02160052
-4.092671	宣传	-0.02160052
-4.092671	宣传牌	-0.02160052
-4.092671	宣告	-0.02160052
-3.657064	宣布	-0.02160052
-4.092671	室外	-0.02160051
-4.092671	宪	-0.02160051
-3.816416	宪法	-0.07955015
-4.092671	宫	-0.02160052
-3.937866	害	-0.02160052
-4.092671	害怕	-0.02160052
-4.092671	害虫	-0.02160052
-3.203315	家	-0.04386132
-4.092671	家园	-0.02160051
-3.816416	家庭	-0.02160051
-4.092671	家徒四壁	-0.02160052
-4.092671	家珍	-0.02160051
-4.092671	家用	-0.02160052
-4.092671	家电维修	-0.02160052
-4.092671	家里	-0.02160052
-4.092671	家长们	-0.02160052
-4.092671	宸	-0.02160052
-3.937866	容易	-0.02160052
-3.657064	宽	-0.02160051
-4.092671	宽厚	-0.02160052
-4.092671	宽阔	-0.02160052
-4.092671	宾	-0.02160052
-4.092671	宿	-0.02160052
-4.092671	密	-0.02160052
-4.092671	密封圈	-0.02160052
-4.092671	密布	-0.02160052
-4.092671	密度	-0.02160052
-4.092671	密谋	-0.02160051
-4.092671	富	-0.02160051
-4.092671	富裕	-0.02160052
-4.092671	富贵	-0.02160052
-4.092671	寒	-0.02160051
-4.092671	寒冷	-0.02160052
-4.092671	寒山寺	-0.02160052
-4.092671	寒气	-0.02160052
-4.092671	寓意	-0.02160052
-4.092671	察看	-0.02160052
-4.092671	察觉	-0.02160051
-4.092671	寡不敌众	-0.02160051
-4.092671	寨	-0.02160052
-2.750506	对	-0.02889474
-3.816416	对于	-0.02160052
-4.092671	对口	-0.02160052
-4.092671	对手	-0.02160052
-4.092671	对接	-0.02160052
-4.092671	对方	-0.02160052
-4.092671	对於	-0.02160051
-3.937866	对此	-0.02160052
-4.092671	对马	-0.02160052
-4.092671	寺庙	-0.02160052
-4.092671	寻呼	-0.02160052
-4.092671	寻呼台	-0.02160052
-3.816416	寻找	-0.02160051
-3.816416	导	-0.02160051
-4.092671	导演	-0.02160052
-3.937866	导致	-0.02160051
-4.092671	寿	-0.02160052
-4.092671	寿春	-0.02160052
-3.449087	封	-0.1200404
-4.092671	射击	-0.02160052
-4.092671	射箭	-0.02160052
-2.718624	将	-0.04464966
-3.816416	将军	-0.02160051
-4.092671	将要	-0.02160052
-3.118354	小	-0.03738382
-4.092671	小人	-0.02160052
-4.092671	小仲	-0.02160052
-4.092671	小伍	-0.02160052
-4.092671	小军	-0.02160052
-4.092671	小孩子	-0.02160052
-4.092671	小山	-0.02160052
-4.092671	小巧玲珑	-0.02160052
-4.092671	小康村	-0.02160052
-4.092671	小杯	-0.02160052
-3.937866	小湖	-0.02160051
-4.092671	小组	-0.02160052
-4.092671	小胖	-0.02160052
-4.092671	小船	-0.02160052
-4.092671	小艾	-0.02160052
-4.092671	小苗	-0.02160052
-4.092671	小费	-0.02160052
-4.092671	小路	-0.02160052
-3.816416	小院	-0.02160052
-3.657064	少	-0.02160051
-4.092671	少儿	-0.02160052
-4.092671	少吃	-0.02160052
-4.092671	少平	-0.02160052
-4.092671	少校	-0.02160051
-4.092671	少部分	-0.02160052
-4.092671	尔	-0.02160052
-3.937866	尖	-0.02160051
-4.092671	尚无	-0.02160052
-3.937866	尚未	-0.02160051
-4.092671	尤为	-0.02160052
-3.937866	尤其	-0.1464405
-3.937866	尧	-0.02160052
-2.647865	就	-0.05290092
-3.816416	就会	-0.02160051
-4.092671	就好	-0.02160051
-3.540743	就是	-0.02160052
-4.092671	就此	-0.02160051
-3.937866	就算	-0.02160051
-4.092671	就职	-0.02160052
-4.092671	尸骨未寒	-0.02160052
-4.092671	尺子	-0.02160052
-3.816416	尼	-0.02160051
-4.092671	尼加拉瓜	-0.02160052
-4.092671	尼恩	-0.02160052
-3.816416	尽	-0.02160051
-3.937866	尽快	-0.02160051
-3.937866	尾	-0.02160051
-4.092671	尾巴	-0.02160052
-3.937866	局	-0.02160051
-4.092671	局促	-0.02160052
-4.092671	局势	-0.02160051
-4.092671	局外人	-0.02160052
-4.092671	局长	-0.02160052
-4.092671	局面	-0.02160052
-3.540743	层	-0.02160052
-4.092671	层层	-0.02160052
-3.937866	居	-0.02160052
-4.092671	居住	-0.02160052
-3.937866	居民	-0.02160051
-4.092671	屈	-0.02160052
-4.092671	屈尊	-0.02160052
-4.092671	届	-0.02160052
-4.092671	屋	-0.02160052
-4.092671	屋内	-0.02160052
-3.937866	屋子	-0.02160051
-3.816416	屋顶	-0.02160051
-4.092671	屏幕	-0.02160051
-3.937866	属	-0.02160052
-4.092671	属于	-0.02160052
-4.092671	屠	-0.02160051
-4.092671	屡	-0.02160052
-3.203315	山	-0.02160051
-3.816416	山下	-0.1007225
-4.092671	山东	-0.02160052
-4.092671	山东省	-0.02160052
-3.657064	山区	-0.02160052
-4.092671	山峦	-0.02160052
-4.092671	山崖	-0.02160052
-4.092671	山川	-0.02160052
-4.092671	山沟	-0.02160052
-4.092671	山泉	-0.02160052
-4.092671	山脉	-0.02160051
-4.092671	山路	-0.02160052
-3.937866	山野	-0.02160051
-4.092671	屿	-0.02160052
-3.309043	岁	-0.1718394
-4.092671	岁月	-0.02160052
-4.092671	岗位	-0.02160052
-4.092671	岛	-0.02160052
-4.092671	岛上	-0.02160052
-3.816416	岩	-0.02160051
-3.937866	岩石	-0.02160052
-3.816416	岳	-0.02160051
-3.816416	岸边	-0.02160051
-4.092671	峡	-0.02160052
-3.816416	峦	-0.02160052
-4.092671	崇武	-0.02160052
-4.092671	崇祯	-0.02160052
-4.092671	崔	-0.02160052
-3.816416	崖	-0.02160051
-4.092671	崖墓	-0.02160052
-4.092671	崛	-0.02160051
-4.092671	崩	-0.02160051
-4.092671	崭	-0.02160052
-4.092671	嶙峋	-0.02160052
-4.092671	巍峨	-0.02160052
-4.092671	巍巍	-0.02160052
-4.092671	川岛芳子	-0.02160052
-3.816416	州	-0.02160051
-4.092671	巡逻艇	-0.02160052
-3.937866	工业	-0.02160051
-4.092671	工业区	-0.02160052
-4.092671	工事	-0.02160052
-3.937866	工人	-0.02160052
-3.25297	工作	-0.04640668
-4.092671	工作面	-0.02160052
-3.937866	工厂	-0.02160052
-4.092671	工学	-0.02160052
-4.092671	工程	-0.02160052
-4.092671	工程院	-0.02160052
-4.092671	工资	-0.02160051
-3.937866	左	-0.02160051
-4.092671	左下	-0.02160052
-3.540743	左右	-0.02160052
-4.092671	左手	-0.02160052
-4.092671	左拐	-0.02160052
-4.092671	巨大	-0.02160051
-4.092671	巨星	-0.02160052
-4.092671	巨额	-0.02160052
-4.092671	巩县	-0.02160052
-4.092671	巫婆	-0.02160052
-4.092671	巫山	-0.02160051
-3.937866	差	-0.02160052
-3.937866	差异	-0.02160051
-4.092671	己	-0.02160052
-2.88517	已	-0.02160052
-3.937866	已有	-0.02160051
-3.657064	已经	-0.02160052
-3.937866	巴	-0.02160052
-4.092671	巴中	-0.02160052
-4.092671	巴尔	-0.02160052
-4.092671	巴拿马	-0.02160052
-3.937866	币	-0.02160052
-3.540743	市	-0.02160052
-4.092671	市区	-0.02160052
-3.449087	市场	-0.02160052
-4.092671	市场报	-0.02160052
-4.092671	市场经济	-0.02160052
-4.092671	市委	-0.02160052
-4.092671	市政	-0.02160052
-4.092671	市长	-0.02160051
-3.937866	布	-0.02160051
-4.092671	布置	-0.02160051
-4.092671	师	-0.02160052
-4.092671	师生	-0.02160052
-4.092671	师表	-0.02160052
-4.092671	希	-0.02160052
-4.092671	希君	-0.02160052
-3.937866	希望	-0.02160052
-4.092671	希望小学	-0.02160052
-3.937866	帐篷	-0.02160052
-4.092671	帕子	-0.02160052
-4.092671	帕帕	-0.02160052
-4.092671	帙	-0.02160052
-3.937866	帝	-0.02160051
-3.373444	带	-0.05376242
-4.092671	带动	-0.02160052
-4.092671	带回	-0.02160052
-4.092671	带头	-0.02160052
-3.816416	带来	-0.02160052
-4.092671	席	-0.02160051
-3.816416	帮	-0.02160051
-3.657064	帮助	-0.02160052
-4.092671	帷幕	-0.02160052
-3.657064	常	-0.02160052
-3.657064	常常	-0.02160052
-4.092671	常温	-0.02160052
-3.937866	常规	-0.02160051
-4.092671	幅员辽阔	-0.02160051
-4.092671	幔	-0.02160052
-4.092671	幢	-0.02160052
-3.657064	干	-0.02160052
-4.092671	干活	-0.02160052
-4.092671	干粮	-0.02160052
-4.092671	干线	-0.02160052
-4.092671	干脆	-0.02160052
-3.937866	干部	-0.02160052
-4.092671	干预	-0.02160052
-3.657064	平	-0.02160052
-3.816416	平均	-0.02160051
-4.092671	平均年龄	-0.02160052
-3.937866	平壤	-0.02160052
-4.092671	平时	-0.02160052
-4.092671	平衡	-0.02160052
-3.015739	年	-0.04520825
-3.937866	年代	-0.02160052
-4.092671	年内	-0.02160052
-4.092671	年卡	-0.02160052
-4.092671	年后	-0.02160051
-4.092671	年底	-0.02160052
-4.092671	年画	-0.02160052
-3.937866	年轻	-0.02160052
-4.092671	年迈	-0.02160052
-4.092671	年长者	-0.02160052
-3.937866	年间	-0.02160052
-3.047324	并	-0.02160052
-3.816416	并不	-0.02160051
-4.092671	并未	-0.02160052
-3.816416	并没有	-0.02160052
-3.937866	并非	-0.1464405
-4.092671	幸免于难	-0.02160052
-4.092671	幸福	-0.02160051
-4.092671	幸运	-0.02160052
-4.092671	幼	-0.02160052
-3.937866	幼儿园	-0.02160052
-4.092671	幼年	-0.02160051
-4.092671	幽	-0.02160051
-4.092671	幽幽	-0.02160052
-4.092671	幽默	-0.02160052
-3.937866	广	-0.02160051
-4.092671	广东人	-0.02160051
-3.309043	广告	-0.02160051
-4.092671	广告业	-0.02160052
-4.092671	广告公司	-0.02160052
-4.092671	广场	-0.02160052
-4.092671	广大	-0.02160052
-4.092671	广岛	-0.02160052
-3.449087	广州	-0.02160052
-4.092671	广州队	-0.02160052
-4.092671	广播	-0.02160052
-3.937866	广泛	-0.02160052
-3.937866	广西	-0.02160051
-4.092671	庄严	-0.02160052
-4.092671	庄村	-0.02160051
-4.092671	庆	-0.02160052
-4.092671	庆贺	-0.02160052
-3.937866	床	-0.02160051
-4.092671	床上	-0.02160052
-4.092671	床单	-0.02160052
-4.092671	床罩	-0.02160052
-4.092671	床铺	-0.02160052
-3.816416	库	-0.02160052
-4.092671	库区	-0.02160052
-4.092671	库存	-0.02160052
-2.863182	应	-0.07882284
-4.092671	应予	-0.02160052
-4.092671	应允	-0.02160052
-3.816416	应当	-0.02160052
-4.092671	应是	-0.02160051
-3.937866	应用	-0.02160052
-4.092671	应用题	-0.02160052
-3.816416	应该	-0.02160052
-4.092671	应运而生	-0.02160052
-3.816416	应邀	-0.02160052
-3.816416	底	-0.02160051
-4.092671	底儿	-0.02160051
-4.092671	底片	-0.02160052
-4.092671	底色	-0.02160052
-4.092671	庖	-0.02160052
-4.092671	庙	-0.02160052
-4.092671	庙前	-0.02160052
-4.092671	府	-0.02160052
-3.937866	庞	-0.02160052
-4.092671	庞大	-0.02160052
-3.937866	废	-0.02160052
-4.092671	废旧	-0.02160052
-4.092671	废水	-0.02160052
-4.092671	度过难关	-0.02160052
-3.937866	座	-0.02160052
-4.092671	庭	-0.02160052
-4.092671	庵	-0.02160051
-3.937866	康	-0.02160051
-4.092671	康县	-0.02160052
-4.092671	康夫	-0.02160052
-4.092671	康熙	-0.02160052
-3.937866	廖	-0.02160051
-3.937866	延伸	-0.02160052
-4.092671	延安	-0.02160052
-4.092671	延寿	-0.02160052
-4.092671	延缓	-0.02160052
-4.092671	延至	-0.02160051
-3.373444	建	-0.05376242
-4.092671	建立	-0.02160052
-4.092671	建筑	-0.02160052
-3.816416	建设	-0.02160052
-3.15876	开	-0.0417898
-4.092671	开业	-0.02160051
-4.092671	开会	-0.02160051
-4.092671	开关	-0.02160052
-4.092671	开发	-0.02160051
-3.937866	开发区	-0.02160052
-3.309043	开始	-0.02160052
-3.540743	开展	-0.02160051
-4.092671	开幕	-0.02160052
-4.092671	开户银行	-0.02160052
-4.092671	开放	-0.02160051
-4.092671	开水	-0.02160052
-4.092671	开滦	-0.02160052
-4.092671	开窗	-0.02160052
-4.092671	开车	-0.02160051
-4.092671	开辟	-0.02160051
-4.092671	开远	-0.02160052
-4.092671	开通	-0.02160052
-3.937866	开采	-0.02160052
-4.092671	开间	-0.02160051
-4.092671	异性	-0.02160052
-4.092671	异样	-0.02160051
-3.816416	弄	-0.02160051
-4.092671	弄清	-0.02160052
-4.092671	弄脏	-0.02160051
-4.092671	式	-0.02160052
-4.092671	弓弩	-0.02160052
-4.092671	弓背	-0.02160052
-3.937866	引	-0.02160052
-4.092671	引擎	-0.02160051
-4.092671	引诱	-0.02160052
-3.816416	引起	-0.02160051
-4.092671	引路	-0.02160052
-3.657064	引进	-0.02160051
-4.092671	弗	-0.02160052
-4.092671	弟	-0.02160052
-4.092671	弟兄	-0.02160052
-3.309043	张	-0.02160052
-4.092671	张伯伦	-0.02160052
-4.092671	张强	-0.02160052
-4.092671	张慧	-0.02160052
-4.092671	张望	-0.02160052
-4.092671	张牙舞爪	-0.02160052
-4.092671	张震	-0.02160052
-4.092671	弥散	-0.02160052
-3.937866	弯	-0.02160051
-3.937866	弯腰	-0.02160052
-3.937866	弱	-0.02160052
-4.092671	弹性	-0.02160052
-4.092671	弹指之间	-0.02160052
-4.092671	弹药	-0.02160052
-3.816416	强	-0.02160051
-4.092671	强劲	-0.02160051
-4.092671	强化	-0.02160051
-4.092671	强壮	-0.02160051
-4.092671	强调	-0.02160051
-4.092671	归	-0.02160052
-3.657064	当	-0.02160052
-4.092671	当中	-0.02160052
-4.092671	当今	-0.02160052
-4.092671	当儿	-0.02160052
-4.092671	当前	-0.02160052
-3.816416	当地	-0.02160051
-4.092671	当场	-0.02160052
-3.937866	当天	-0.02160051
-4.092671	当家	-0.02160052
-4.092671	当年	-0.02160052
-3.816416	当时	-0.02160051
-3.937866	当然	-0.02160051
-4.092671	当铺	-0.02160052
-4.092671	录像带	-0.02160052
-4.092671	录取	-0.02160052
-3.937866	录用	-0.02160052
-3.937866	形	-0.02160051
-4.092671	形似	-0.02160052
-4.092671	形势	-0.02160052
-3.657064	形式	-0.02160052
-3.937866	形状	-0.02160051
-4.092671	形象	-0.02160052
-4.092671	彩云	-0.02160052
-4.092671	彩印厂	-0.02160052
-4.092671	彩旗	-0.02160052
-4.092671	彩色	-0.02160052
-3.937866	彩蝶	-0.1464405
-4.092671	彬	-0.02160052
-4.092671	彬彬有礼	-0.02160052
-3.937866	彭	-0.02160051
-4.092671	彭丽媛	-0.02160052
-3.657064	影	-0.02160052
-4.092671	影业	-0.02160052
-3.816416	影响	-0.1007225
-4.092671	影响生育	-0.02160051
-4.092671	影坛	-0.02160051
-4.092671	影片	-0.02160052
-4.092671	影视	-0.02160052
-4.092671	影视作品	-0.02160052
-4.092671	影视片	-0.02160052
-4.092671	彻夜未眠	-0.02160052
-4.092671	彻底	-0.02160052
-4.092671	彼	-0.02160052
-2.958723	往	-0.03455652
-3.937866	往下	-0.02160051
-4.092671	往回	-0.02160052
-3.449087	往往	-0.02160052
-4.092671	往日	-0.02160052
-4.092671	往来	-0.02160052
-4.092671	征	-0.02160052
-4.092671	征收	-0.02160052
-4.092671	径	-0.02160051
-4.092671	待	-0.02160052
-3.15876	很	-0.02160052
-4.092671	很多	-0.02160052
-4.092671	很容易	-0.02160052
-3.816416	很快	-0.02160051
-3.540743	徐	-0.02160052
-4.092671	徐州市	-0.02160052
-4.092671	徐敏	-0.02160051
-2.767371	得	-0.0416288
-3.816416	得到	-0.02160052
-4.092671	得名	-0.02160052
-4.092671	得志	-0.02160052
-4.092671	循	-0.02160052
-4.092671	循环	-0.02160052
-4.092671	循环系统	-0.02160051
-4.092671	微妙	-0.02160052
-4.092671	微弱	-0.02160052
-4.092671	微微	-0.02160052
-4.092671	微生物	-0.02160052
-3.816416	德	-0.02160051
-4.092671	德勤	-0.02160052
-3.937866	德育	-0.02160052
-3.657064	心	-0.02160052
-4.092671	心力	-0.02160052
-4.092671	心地	-0.02160052
-4.092671	心境	-0.02160052
-4.092671	心头	-0.02160052
-4.092671	心思	-0.02160052
-3.937866	心情	-0.02160052
-4.092671	心惊肉跳	-0.02160052
-4.092671	心浮	-0.02160052
-4.092671	心肌梗塞	-0.02160052
-4.092671	心肝	-0.02160052
-4.092671	心脏	-0.02160052
-3.937866	心里	-0.02160051
-4.092671	必	-0.02160052
-4.092671	必能	-0.02160052
-3.449087	必须	-0.02160052
-4.092671	忆苦	-0.02160052
-4.092671	忐忑	-0.02160052
-4.092671	志气	-0.02160052
-4.092671	忘不了	-0.02160052
-4.092671	忘了	-0.02160051
-4.092671	忘却	-0.02160051
-4.092671	忘怀	-0.02160051
-4.092671	忘我	-0.02160052
-4.092671	忘本	-0.02160052
-4.092671	忘记	-0.02160051
-3.937866	忙	-0.02160052
-4.092671	忙于	-0.02160052
-3.937866	忙碌	-0.02160052
-4.092671	忧郁	-0.02160052
-3.373444	快	-0.02160052
-4.092671	快艇	-0.02160052
-4.092671	快要	-0.02160052
-3.816416	念佛	-0.02160051
-4.092671	忻	-0.02160052
-4.092671	怀	-0.02160052
-4.092671	怀孕	-0.02160052
-4.092671	怀抱	-0.02160052
-3.816416	怎么	-0.02160051
-4.092671	怎奈	-0.02160052
-3.937866	怎样	-0.02160051
-3.937866	怒	-0.02160051
-4.092671	怒斥	-0.02160052
-3.937866	怒江	-0.02160051
-4.092671	怔	-0.02160051
-3.540743	怕	-0.02160052
-4.092671	怖	-0.02160052
-3.937866	思	-0.02160051
-4.092671	思奇	-0.02160051
-3.816416	思想	-0.02160052
-4.092671	思维	-0.02160052
-4.092671	思路	-0.02160052
-4.092671	怡人	-0.02160052
-4.092671	急	-0.02160052
-3.937866	急切	-0.02160052
-4.092671	急忙	-0.02160052
-4.092671	急性	-0.02160052
-4.092671	急需	-0.02160051
-3.657064	性	-0.02160052
-4.092671	性情	-0.02160052
-4.092671	性格	-0.02160052
-4.092671	性爱	-0.02160052
-4.092671	性腺	-0.02160051
-4.092671	性质	-0.02160051
-4.092671	怪	-0.02160052
-4.092671	怪事	-0.02160052
-4.092671	怪物	-0.02160052
-4.092671	怪病	-0.02160052
-4.092671	怯	-0.02160052
-3.816416	总	-0.02160051
-4.092671	总体	-0.02160051
-4.092671	总公司	-0.02160051
-4.092671	总是	-0.02160052
-3.937866	总理	-0.02160051
-3.937866	总算	-0.02160051
-4.092671	总经理	-0.02160052
-4.092671	总结会	-0.02160052
-3.657064	总统	-0.02160052
-4.092671	总能	-0.02160052
-4.092671	总额	-0.02160051
-3.937866	恋爱	-0.02160052
-4.092671	恐怕	-0.02160052
-4.092671	恐怖	-0.02160052
-4.092671	恐惧	-0.02160052
-4.092671	恒通	-0.02160052
-4.092671	恢复	-0.02160051
-4.092671	恩	-0.02160052
-4.092671	恩宠	-0.02160052
-4.092671	恩赐	-0.02160051
-3.937866	恬静	-0.02160052
-4.092671	恰恰相反	-0.02160052
-4.092671	恳请	-0.02160052
-4.092671	恶	-0.02160052
-4.092671	恶劣	-0.02160052
-4.092671	恶性循环	-0.02160052
-4.092671	恶毒	-0.02160052
-4.092671	恶魔	-0.02160052
-4.092671	恼怒	-0.02160052
-4.092671	悄悄	-0.02160052
-4.092671	悟	-0.02160052
-4.092671	悟到	-0.02160052
-3.657064	患	-0.1791284
-4.092671	患儿	-0.02160052
-3.937866	患有	-0.02160051
-4.092671	患病	-0.02160051
-4.092671	患者	-0.02160052
-3.449087	您	-0.02160052
-4.092671	悬空	-0.02160052
-4.092671	悲伤	-0.02160052
-4.092671	悲壮	-0.02160052
-4.092671	情	-0.02160052
-4.092671	情侣卡	-0.02160052
-3.657064	情况	-0.02160051
-4.092671	情景	-0.02160052
-3.937866	惊	-0.1464405
-4.092671	惊呆	-0.02160051
-4.092671	惊恐万状	-0.02160051
-4.092671	惟	-0.02160052
-4.092671	惦	-0.02160052
-4.092671	惬意	-0.02160051
-4.092671	惭愧	-0.02160052
-3.449087	想	-0.02160052
-4.092671	想出	-0.02160052
-4.092671	想笑	-0.02160052
-3.937866	想要	-0.02160051
-4.092671	想象	-0.02160052
-4.092671	想起来	-0.02160052
-4.092671	惶惶	-0.02160052
-3.816416	愈	-0.1464405
-4.092671	愈演愈烈	-0.02160052
-4.092671	愉快	-0.02160052
-3.937866	意	-0.02160051
-3.937866	意义	-0.1464405
-4.092671	意味	-0.02160052
-4.092671	意味着	-0.02160051
-4.092671	意外	-0.02160052
-4.092671	意欲	-0.02160052
-4.092671	意犹未尽	-0.02160052
-4.092671	意识	-0.02160051
-4.092671	愚	-0.02160051
-3.816416	感	-0.02160051
-4.092671	感兴趣	-0.02160051
-4.092671	感冒	-0.02160051
-3.816416	感到	-0.02160051
-4.092671	感受	-0.02160052
-4.092671	感叹	-0.02160051
-4.092671	感应	-0.02160052
-4.092671	感激涕零	-0.02160052
-4.092671	感觉	-0.02160051
-4.092671	感谢	-0.02160052
-4.092671	愤	-0.02160052
-4.092671	愤怒	-0.02160051
-3.540743	愿	-0.02160052
-3.937866	愿意	-0.02160052
-3.937866	愿望	-0.02160052
-3.937866	慕	-0.02160051
-4.092671	慢	-0.02160051
-4.092671	慢性	-0.02160052
-4.092671	慧娟	-0.02160052
-3.816416	慰问	-0.02160052
-4.092671	憨憨	-0.02160052
-4.092671	懊丧	-0.02160052
-4.092671	懒惰	-0.02160052
-4.092671	懦弱	-0.02160052
-4.092671	戈	-0.02160052
-3.816416	戏	-0.02160051
-3.449087	成	-0.02160052
-4.092671	成一	-0.02160052
-4.092671	成不了	-0.02160052
-3.657064	成为	-0.02160052
-3.309043	成了	-0.02160052
-4.092671	成分	-0.02160052
-3.816416	成功	-0.02160052
-4.092671	成员	-0.02160052
-4.092671	成堆	-0.02160052
-4.092671	成家	-0.02160051
-4.092671	成对	-0.02160052
-3.937866	成本	-0.02160052
-4.092671	成果	-0.02160052
-3.937866	成熟	-0.02160052
-3.540743	成绩	-0.02160051
-4.092671	成群结队	-0.02160051
-4.092671	成都	-0.02160052
-4.092671	成长	-0.02160052
-2.32305	我	-0.09852885
-4.092671	我不会	-0.02160052
-4.092671	我以为	-0.02160052
-3.015739	我们	-0.03382651
-4.092671	我们一家	-0.02160052
-4.092671	我厂	-0.02160051
-3.937866	我县	-0.02160052
-4.092671	我喜欢	-0.02160052
-3.309043	我国	-0.02160052
-4.092671	我妈	-0.02160052
-3.937866	我家	-0.02160051
-4.092671	我的家	-0.02160052
-3.937866	我的手	-0.02160052
-4.092671	我的灵魂	-0.02160051
-4.092671	我省	-0.02160052
-4.092671	我终于	-0.02160051
-3.937866	我镇	-0.02160052
-4.092671	戒指	-0.02160051
-4.092671	戒烟	-0.02160051
-3.15876	或	-0.02160052
-3.816416	或者	-0.02160051
-4.092671	或许	-0.02160051
-4.092671	战争	-0.02160052
-4.092671	战军	-0.02160052
-4.092671	战场	-0.02160052
-3.816416	战士	-0.02160052
-3.937866	战斗	-0.02160052
-4.092671	战无不胜	-0.02160052
-4.092671	战时	-0.02160052
-4.092671	战火	-0.02160052
-4.092671	战略	-0.02160052
-4.092671	战线	-0.02160051
-4.092671	战绩	-0.02160052
-4.092671	战胜	-0.02160051
-4.092671	截至	-0.02160051
-4.092671	戳	-0.02160052
-3.816416	戴	-0.02160051
-3.449087	户	-0.02160052
-4.092671	户外	-0.02160051
-4.092671	房间	-0.02160052
-3.047324	所	-0.02160052
-3.373444	所以	-0.02160052
-4.092671	所得	-0.02160052
-3.816416	所有	-0.02160052
-4.092671	所有者	-0.02160052
-4.092671	所说	-0.02160051
-4.092671	所谓	-0.02160052
-4.092671	所长	-0.02160052
-3.937866	所需	-0.02160051
-3.540743	手	-0.02160052
-4.092671	手指	-0.02160051
-4.092671	手捧	-0.02160051
-4.092671	手掌	-0.02160052
-4.092671	手绢	-0.02160052
-4.092671	手表	-0.02160052
-4.092671	手里	-0.02160051
-3.25297	才	-0.02160052
-4.092671	才会	-0.02160051
-3.816416	才能	-0.02160051
-3.816416	扎	-0.02160051
-4.092671	扎伊尔	-0.02160052
-4.092671	扎基	-0.02160052
-3.816416	扑	-0.02160052
-4.092671	扑向	-0.02160052
-4.092671	扒	-0.02160052
-3.449087	打	-0.02160052
-4.092671	打击	-0.02160052
-4.092671	打好	-0.02160051
-4.092671	打工妹	-0.02160052
-3.937866	打开	-0.02160051
-4.092671	打来	-0.02160051
-4.092671	打结	-0.02160052
-4.092671	打酱油	-0.02160052
-4.092671	扔	-0.02160052
-4.092671	扔掉	-0.02160052
-3.657064	托	-0.02160052
-4.092671	托尔斯泰	-0.02160052
-4.092671	扛着	-0.02160052
-4.092671	扣	-0.02160052
-4.092671	扣押	-0.02160052
-4.092671	执行主席	-0.02160052
-4.092671	扩印	-0.02160052
-4.092671	扩大	-0.02160052
-4.092671	扫兴	-0.02160051
-4.092671	扫描	-0.02160052
-4.092671	扫荡	-0.02160051
-4.092671	扫除	-0.02160052
-4.092671	扫雷	-0.02160051
-3.937866	扬	-0.02160051
-4.092671	扬名	-0.02160052
-4.092671	扬州	-0.02160052
-4.092671	扬扬	-0.02160052
-4.092671	扬起	-0.02160051
-4.092671	扭亏	-0.02160052
-4.092671	扭亏为盈	-0.02160052
-4.092671	扭动	-0.02160052
-4.092671	扯	-0.02160052
-4.092671	扰乱	-0.02160052
-4.092671	扶	-0.02160052
-4.092671	扶持	-0.02160051
-4.092671	扼住	-0.02160051
-4.092671	扼制	-0.02160051
-3.937866	找	-0.02160051
-4.092671	承	-0.02160052
-3.937866	承兑	-0.02160051
-4.092671	承包	-0.02160052
-4.092671	承托	-0.02160052
-3.309043	技术	-0.02160051
-4.092671	技术培训	-0.02160051
-4.092671	技能	-0.02160051
-4.092671	技艺	-0.02160052
-2.784916	把	-0.02160052
-4.092671	把玩	-0.02160052
-2.986296	抓	-0.02160051
-3.816416	抓住	-0.02160052
-4.092671	抓好	-0.02160052
-4.092671	抓走	-0.02160052
-4.092671	抓重点	-0.02160052
-4.092671	投入	-0.02160052
-3.937866	投资	-0.02160051
-4.092671	抗争	-0.02160052
-4.092671	抗日	-0.02160052
-4.092671	抗洪	-0.02160052
-4.092671	抗美援朝	-0.02160052
-4.092671	抗菌素	-0.02160052
-4.092671	抛	-0.02160052
-4.092671	抛售	-0.02160051
-4.092671	抢	-0.02160052
-4.092671	抢先	-0.02160052
-4.092671	抢运	-0.02160052
-4.092671	护	-0.02160052
-3.816416	护理	-0.02160052
-3.937866	报告	-0.02160051
-4.092671	报复	-0.02160052
-4.092671	报时	-0.02160051
-3.816416	报道	-0.02160051
-3.937866	抱	-0.02160051
-3.937866	抱住	-0.02160052
-3.937866	抱着	-0.02160051
-4.092671	抵	-0.02160052
-4.092671	抵抗	-0.02160052
-4.092671	抵押	-0.02160052
-4.092671	抵赖	-0.02160052
-4.092671	抵达	-0.02160052
-4.092671	抹	-0.02160052
-4.092671	押	-0.02160052
-4.092671	押运	-0.02160052
-4.092671	押韵	-0.02160051
-3.937866	抽	-0.02160052
-4.092671	抽掉	-0.02160052
-3.937866	抽水	-0.1464405
-4.092671	担任	-0.02160052
-4.092671	拆	-0.02160052
-3.540743	拉	-0.02160051
-4.092671	拉丝	-0.02160052
-4.092671	拉夫	-0.02160052
-4.092671	拉开	-0.02160052
-4.092671	拉萨	-0.02160052
-4.092671	拉迪	-0.02160052
-4.092671	拉那	-0.02160052
-4.092671	拌	-0.02160052
-4.092671	拌菜	-0.02160052
-3.937866	拍	-0.02160051
-3.937866	拍卖	-0.02160051
-4.092671	拍摄	-0.02160052
-4.092671	拍案而起	-0.02160052
-4.092671	拐卖	-0.02160052
-4.092671	拒绝	-0.02160052
-4.092671	拔牙	-0.02160052
-4.092671	拖	-0.02160051
-4.092671	拖延	-0.02160052
-4.092671	拖欠	-0.02160052
-4.092671	拚搏	-0.02160051
-4.092671	招待会	-0.02160052
-4.092671	拟	-0.02160052
-3.937866	拥	-0.02160052
-4.092671	拥军	-0.02160052
-3.449087	拥有	-0.02160052
-4.092671	拦腰	-0.02160052
-3.816416	拧	-0.1007225
-4.092671	拧紧	-0.02160051
-4.092671	拨出	-0.02160052
-4.092671	拨款	-0.02160052
-4.092671	拨给	-0.02160052
-3.816416	拴	-0.02160051
-4.092671	拴住	-0.02160052
-4.092671	拼命	-0.02160052
-3.937866	拼搏	-0.02160051
-4.092671	拼杀	-0.02160052
-3.937866	拿	-0.02160052
-4.092671	拿出	-0.02160052
-4.092671	拿手	-0.02160052
-4.092671	持	-0.02160052
-4.092671	持家	-0.02160052
-4.092671	持枪	-0.02160052
-3.449087	挂	-0.02160052
-3.937866	挂钩	-0.02160052
-3.816416	指出	-0.02160052
-4.092671	指头	-0.02160052
-4.092671	指导员	-0.02160052
-4.092671	指挥	-0.02160052
-4.092671	指标	-0.02160052
-3.309043	按	-0.02160052
-4.092671	按年	-0.02160052
-3.657064	按照	-0.02160052
-4.092671	挑灯夜战	-0.02160052
-3.540743	挖	-0.02160051
-4.092671	挖土机	-0.02160051
-4.092671	挖掘	-0.02160051
-4.092671	挖潜	-0.02160052
-4.092671	挡住	-0.02160052
-4.092671	挣扎	-0.02160052
-4.092671	挥毫	-0.02160052
-4.092671	挨	-0.02160052
-4.092671	挨斗	-0.02160052
-4.092671	挨罚	-0.02160052
-4.092671	挪	-0.02160051
-4.092671	挪威	-0.02160052
-4.092671	挺拔	-0.02160052
-4.092671	挺身	-0.02160052
-4.092671	捅	-0.02160052
-4.092671	捆	-0.02160052
-4.092671	捆扎	-0.02160052
-4.092671	捉住	-0.02160052
-4.092671	捏造	-0.02160051
-4.092671	捐款	-0.02160052
-3.937866	捕捉	-0.02160052
-3.937866	捕捞	-0.02160051
-4.092671	捕杀	-0.02160052
-4.092671	捕获	-0.02160052
-4.092671	损	-0.02160052
-4.092671	损伤	-0.02160051
-4.092671	损坏	-0.02160052
-3.540743	损失	-0.02160052
-4.092671	损失惨重	-0.02160052
-3.657064	损害	-0.02160052
-3.657064	换	-0.07955015
-4.092671	换句话说	-0.02160052
-4.092671	换言之	-0.02160052
-4.092671	捧腹	-0.02160052
-3.816416	据	-0.02160052
-4.092671	据悉	-0.02160052
-4.092671	据说	-0.02160052
-4.092671	授予	-0.02160052
-4.092671	掉	-0.02160052
-4.092671	掌握	-0.02160052
-4.092671	掏出	-0.02160051
-4.092671	掏腰包	-0.02160052
-4.092671	掐	-0.02160052
-4.092671	排列	-0.02160052
-4.092671	排名	-0.02160052
-3.816416	排放	-0.02160051
-4.092671	排污	-0.02160052
-4.092671	排球	-0.02160052
-4.092671	排练	-0.02160051
-4.092671	掠过	-0.02160052
-3.937866	探	-0.02160051
-4.092671	探望	-0.02160052
-4.092671	探索	-0.02160052
-4.092671	探讨	-0.02160052
-4.092671	接任	-0.02160052
-3.816416	接受	-0.02160051
-4.092671	接来	-0.02160052
-4.092671	接班	-0.02160051
-4.092671	接着	-0.02160052
-4.092671	接过	-0.02160051
-4.092671	接连	-0.02160052
-3.937866	控制	-0.02160052
-3.816416	推	-0.02160051
-4.092671	推下	-0.02160052
-3.937866	推出	-0.02160051
-4.092671	推动	-0.02160052
-4.092671	推卸	-0.02160051
-4.092671	推土机	-0.02160052
-3.816416	推广	-0.02160052
-4.092671	推波助澜	-0.02160052
-4.092671	推进	-0.02160052
-4.092671	推进剂	-0.02160052
-4.092671	推销	-0.02160052
-4.092671	推门	-0.02160052
-4.092671	掩	-0.02160052
-4.092671	掩映	-0.02160052
-4.092671	措	-0.02160052
-4.092671	措施	-0.02160052
-4.092671	掺	-0.02160052
-4.092671	揆	-0.02160052
-3.937866	揉	-0.02160051
-4.092671	描绘	-0.02160052
-4.092671	提	-0.02160052
-4.092671	提供	-0.02160052
-3.816416	提出	-0.02160052
-4.092671	提议	-0.02160052
-3.657064	提高	-0.02160052
-3.816416	插	-0.02160051
-4.092671	握	-0.02160052
-3.937866	握手言和	-0.02160052
-4.092671	揭阳	-0.02160052
-4.092671	援引	-0.02160052
-4.092671	搅	-0.02160052
-4.092671	搏	-0.02160052
-3.816416	搜查	-0.1007225
-4.092671	搬迁	-0.02160052
-4.092671	摄制组	-0.02160052
-4.092671	摄影	-0.02160052
-3.937866	摄氏度	-0.02160051
-4.092671	摆	-0.02160052
-4.092671	摇一摇	-0.02160052
-4.092671	摇头	-0.02160051
-3.937866	摇晃	-0.02160051
-4.092671	摇曳	-0.02160052
-4.092671	摔倒	-0.02160052
-4.092671	摔成	-0.02160052
-4.092671	摔死	-0.02160051
-4.092671	摧毁	-0.02160052
-4.092671	摭	-0.02160052
-4.092671	撇	-0.02160052
-4.092671	撇嘴	-0.02160052
-4.092671	撕破	-0.02160052
-4.092671	撞	-0.02160052
-4.092671	撤	-0.02160052
-4.092671	撤军	-0.02160052
-4.092671	撤离	-0.02160052
-4.092671	撤销	-0.02160052
-4.092671	撩	-0.02160052
-3.937866	播	-0.02160052
-4.092671	播种	-0.02160052
-4.092671	撰写	-0.02160052
-4.092671	擅长	-0.02160052
-4.092671	操纵	-0.02160052
-4.092671	擦	-0.02160052
-4.092671	擦亮	-0.02160052
-4.092671	擦嘴	-0.02160052
-4.092671	擦拭	-0.02160052
-4.092671	擦掉	-0.02160052
-4.092671	支付	-0.02160051
-4.092671	支农	-0.02160052
-4.092671	支委	-0.02160051
-4.092671	支持	-0.02160052
-3.937866	支援	-0.02160051
-4.092671	支部书记	-0.02160052
-4.092671	收	-0.02160052
-4.092671	收住	-0.02160052
-4.092671	收入	-0.02160052
-3.937866	收容	-0.1464405
-4.092671	收徒	-0.02160052
-4.092671	收获	-0.02160052
-3.937866	收集	-0.02160052
-3.937866	改	-0.02160052
-3.816416	改为	-0.02160051
-4.092671	改任	-0.02160052
-4.092671	改变	-0.02160051
-4.092671	改名	-0.02160052
-4.092671	改正	-0.02160052
-4.092671	改选	-0.02160052
-3.937866	改造	-0.02160052
-3.937866	改革	-0.02160052
-4.092671	改革开放	-0.02160051
-3.937866	放	-0.02160051
-4.092671	放回	-0.02160052
-4.092671	放在	-0.02160052
-4.092671	放学后	-0.02160052
-4.092671	放弃	-0.02160051
-4.092671	放心	-0.02160052
-3.937866	放映	-0.02160051
-4.092671	放眼	-0.02160052
-4.092671	政令	-0.02160052
-4.092671	政企	-0.02160052
-4.092671	政委	-0.02160052
-3.657064	政府	-0.02160052
-4.092671	政治	-0.02160052
-3.937866	政策	-0.02160052
-3.937866	故	-0.02160051
-4.092671	故友	-0.02160052
-4.092671	故土	-0.02160052
-4.092671	效应	-0.02160052
-3.937866	效果	-0.02160052
-4.092671	效率	-0.02160052
-4.092671	效益	-0.02160051
-4.092671	敌人	-0.02160051
-4.092671	敌后	-0.02160052
-3.937866	救亡	-0.02160051
-4.092671	救命恩人	-0.02160052
-4.092671	救灾	-0.02160051
-4.092671	敖	-0.02160052
-4.092671	教义	-0.02160052
-4.092671	教书育人	-0.02160052
-4.092671	教务长	-0.02160052
-4.092671	教师	-0.02160052
-3.937866	教授	-0.02160051
-4.092671	教材	-0.02160052
-4.092671	教民	-0.02160052
-4.092671	教派	-0.02160052
-4.092671	教练	-0.02160052
-3.449087	教育	-0.02160052
-4.092671	敢	-0.02160051
-4.092671	敢做	-0.02160051
-3.937866	散	-0.02160051
-4.092671	散尽	-0.02160052
-3.937866	散文	-0.02160051
-4.092671	散落	-0.02160051
-4.092671	敦煌	-0.02160052
-4.092671	敬业	-0.02160052
-4.092671	敬仰	-0.02160051
-4.092671	敬老院	-0.02160052
-4.092671	敬酒	-0.02160052
-3.937866	数	-0.02160051
-4.092671	数学	-0.02160052
-3.937866	整	-0.02160051
-4.092671	整修	-0.02160052
-4.092671	整地	-0.02160052
-3.937866	整容	-0.02160052
-4.092671	整整	-0.02160051
-4.092671	整洁	-0.02160051
-4.092671	整顿	-0.02160051
-4.092671	整齐	-0.02160052
-3.373444	文	-0.02160052
-4.092671	文中	-0.02160051
-3.816416	文人	-0.02160051
-4.092671	文件	-0.02160051
-4.092671	文兰	-0.02160052
-3.540743	文化	-0.02160052
-4.092671	文化局	-0.02160052
-4.092671	文化馆	-0.02160052
-4.092671	文华	-0.02160052
-4.092671	文友	-0.02160051
-4.092671	文史	-0.02160052
-4.092671	文字	-0.02160052
-4.092671	文学	-0.02160052
-4.092671	文学作品	-0.02160052
-4.092671	文富	-0.02160052
-3.540743	文明	-0.05936214
-3.937866	文本	-0.02160051
-3.657064	文物	-0.02160052
-3.657064	文章	-0.02160052
-3.937866	文联	-0.02160052
-3.816416	文艺	-0.1007225
-4.092671	文言文	-0.02160052
-4.092671	文远	-0.02160052
-4.092671	文选	-0.02160052
-4.092671	文阁	-0.02160052
-4.092671	斑块	-0.02160052
-4.092671	斗	-0.02160052
-3.937866	料	-0.02160052
-4.092671	斜眼	-0.02160052
-4.092671	斟酒	-0.02160051
-4.092671	斥责	-0.02160052
-3.816416	断	-0.02160051
-4.092671	斯	-0.02160052
-4.092671	斯巴达	-0.02160051
-4.092671	斯里兰卡	-0.02160052
-3.203315	新	-0.04007104
-4.092671	新华社	-0.02160052
-4.092671	新型	-0.02160052
-3.937866	新娘	-0.1464405
-4.092671	新建	-0.02160052
-4.092671	新材料	-0.02160052
-4.092671	新概念英语	-0.02160052
-4.092671	新潮	-0.02160052
-3.937866	新的	-0.02160052
-4.092671	新立	-0.02160052
-4.092671	新药	-0.02160052
-4.092671	新路	-0.02160052
-4.092671	新郎	-0.02160052
-4.092671	新都	-0.02160052
-4.092671	新闻	-0.02160052
-4.092671	新颖	-0.02160051
-4.092671	新鲜	-0.02160052
-3.540743	方	-0.02160051
-4.092671	方便	-0.02160052
-4.092671	方圆	-0.02160052
-4.092671	方式	-0.02160052
-4.092671	方方正正	-0.02160052
-4.092671	方案	-0.02160052
-3.540743	方法	-0.02160052
-4.092671	方面	-0.02160051
-3.937866	旁	-0.02160051
-4.092671	旁观	-0.02160052
-4.092671	旅	-0.02160052
-4.092671	旅客	-0.02160052
-4.092671	旅游业	-0.02160052
-4.092671	旅游区	-0.02160052
-4.092671	旅长	-0.02160052
-4.092671	旋即	-0.02160052
-4.092671	旋转	-0.02160052
-4.092671	族	-0.02160051
-3.449087	无	-0.02160052
-4.092671	无一	-0.02160052
-4.092671	无光	-0.02160052
-4.092671	无害	-0.02160052
-4.092671	无影无踪	-0.02160052
-3.937866	无愧于	-0.02160052
-4.092671	无方	-0.02160052
-4.092671	无望	-0.02160052
-4.092671	无期徒刑	-0.02160052
-3.816416	无法	-0.1007225
-4.092671	无疑	-0.02160052
-4.092671	无碍	-0.02160052
-4.092671	无线	-0.02160052
-4.092671	无缘无故	-0.02160052
-3.449087	既	-0.02160052
-4.092671	既有	-0.02160052
-4.092671	既然	-0.02160052
-3.118354	日	-0.0417898
-4.092671	日久	-0.02160051
-4.092671	日伪	-0.02160052
-4.092671	日军	-0.02160052
-3.937866	日前	-0.02160051
-4.092671	日化	-0.02160052
-3.937866	日夜	-0.02160051
-3.937866	日子	-0.02160052
-4.092671	日新月异	-0.02160052
-4.092671	日方	-0.02160051
-4.092671	日期	-0.02160052
-3.540743	日本	-0.02160052
-3.540743	日电	-0.02160052
-4.092671	旧	-0.02160052
-4.092671	早	-0.02160052
-4.092671	早产	-0.02160052
-4.092671	早婚	-0.02160052
-3.937866	早已	-0.02160051
-4.092671	早市	-0.02160052
-4.092671	早育	-0.02160052
-4.092671	早衰	-0.02160052
-4.092671	早被	-0.02160052
-4.092671	旮旯	-0.02160052
-4.092671	旱情	-0.02160052
-4.092671	旱烟	-0.02160052
-2.8032	时	-0.0303684
-3.937866	时下	-0.02160051
-4.092671	时代	-0.02160052
-4.092671	时候	-0.02160052
-4.092671	时期	-0.02160052
-4.092671	时来运转	-0.02160052
-3.540743	时而	-0.02160052
-3.816416	时装	-0.02160051
-3.816416	时间	-0.02160051
-4.092671	旷野	-0.02160051
-4.092671	旺仔	-0.02160052
-4.092671	昂首	-0.02160052
-4.092671	昂首阔步	-0.02160052
-4.092671	昆仑	-0.02160052
-3.816416	昆明	-0.02160051
-3.937866	昌	-0.02160052
-4.092671	明亮	-0.02160052
-4.092671	明伦	-0.02160052
-4.092671	明天	-0.02160052
-4.092671	明太祖	-0.02160052
-4.092671	明年还要	-0.02160052
-3.937866	明显	-0.02160052
-4.092671	明晚	-0.02160052
-3.937866	明月	-0.02160052
-4.092671	明白	-0.02160052
-3.937866	明确	-0.02160052
-4.092671	明说	-0.02160052
-4.092671	明镜	-0.02160052
-4.092671	昏暗	-0.02160052
-3.816416	易	-0.02160051
-4.092671	昔日	-0.02160051
-4.092671	昙花一现	-0.02160051
-4.092671	星空	-0.02160052
-3.937866	映	-0.02160052
-4.092671	映入	-0.02160052
-4.092671	映入眼帘	-0.02160052
-4.092671	映衬	-0.02160052
-3.657064	春	-0.02160052
-4.092671	春天	-0.02160052
-4.092671	春山	-0.02160052
-4.092671	春意	-0.02160052
-4.092671	春秋战国	-0.02160052
-4.092671	春耕	-0.02160052
-4.092671	春色	-0.02160052
-4.092671	春节前	-0.02160051
-4.092671	春运	-0.02160052
-4.092671	春风	-0.02160052
-4.092671	春风吹	-0.02160052
-3.937866	昨天	-0.02160051
-4.092671	昭	-0.02160052
-2.316912	是	-0.02720055
-3.937866	是否	-0.02160051
-3.937866	是因为	-0.1464405
-4.092671	是指	-0.02160052
-4.092671	是日	-0.02160052
-4.092671	是由	-0.02160052
-4.092671	昵	-0.02160052
-3.937866	昼夜	-0.02160052
-3.937866	显得	-0.02160052
-3.937866	显然	-0.02160052
-4.092671	显而易见	-0.02160052
-4.092671	显赫	-0.02160051
-4.092671	晒	-0.02160051
-4.092671	晒太阳	-0.02160052
-3.937866	晒干	-0.02160051
-4.092671	晓	-0.02160052
-4.092671	晓庄	-0.02160052
-4.092671	晓得	-0.02160052
-4.092671	晕晕乎乎	-0.02160051
-3.540743	晚	-0.02160051
-4.092671	晚上	-0.02160052
-4.092671	晚间	-0.02160052
-4.092671	晦	-0.02160052
-4.092671	晦暗	-0.02160052
-4.092671	晨	-0.02160052
-3.937866	普	-0.02160051
-4.092671	普及	-0.02160052
-4.092671	普希金	-0.02160052
-3.816416	普遍	-0.1007225
-4.092671	景	-0.02160052
-3.937866	景况	-0.02160052
-4.092671	景色	-0.02160052
-4.092671	景观	-0.02160052
-3.937866	智慧	-0.02160052
-3.937866	智育	-0.02160052
-4.092671	暂	-0.02160052
-4.092671	暂缺	-0.02160052
-4.092671	暖春	-0.02160052
-4.092671	暖暖的	-0.02160052
-4.092671	暗	-0.02160052
-4.092671	暗中	-0.02160052
-3.937866	暗号	-0.02160051
-4.092671	暗盒	-0.02160051
-4.092671	暗红色	-0.02160052
-4.092671	暮雨	-0.02160052
-4.092671	曝晒	-0.02160052
-3.657064	曲	-0.0673251
-4.092671	曲折	-0.02160052
-4.092671	曲曲	-0.02160052
-4.092671	曲目	-0.02160052
-3.203315	更	-0.02160052
-4.092671	更加	-0.02160052
-4.092671	更多	-0.02160051
-4.092671	更大	-0.02160052
-4.092671	更早	-0.02160051
-3.657064	更是	-0.02160052
-4.092671	更正	-0.02160052
-4.092671	曹	-0.02160052
-4.092671	曹禺	-0.02160052
-3.203315	曾	-0.02160052
-4.092671	曾某	-0.02160052
-4.092671	曾经	-0.02160052
-4.092671	曾荫权	-0.02160052
-4.092671	曾随	-0.02160052
-3.25297	最	-0.02160052
-3.937866	最为	-0.02160051
-4.092671	最古老	-0.02160051
-3.816416	最后	-0.02160052
-4.092671	最后一块	-0.02160052
-4.092671	最后的	-0.02160052
-3.937866	最大	-0.1464405
-4.092671	最方便	-0.02160051
-4.092671	最终	-0.02160051
-3.373444	最近	-0.02160052
-4.092671	最长	-0.02160052
-4.092671	最高	-0.02160051
-4.092671	最高气温	-0.02160052
-3.015739	月	-0.1264189
-4.092671	月亮	-0.02160052
-4.092671	月华	-0.02160052
-4.092671	月卡	-0.02160052
-3.937866	月娥	-0.02160051
-4.092671	月山	-0.02160052
-3.937866	月底	-0.02160051
-4.092671	月收入	-0.02160052
-4.092671	月末	-0.02160052
-3.937866	月色	-0.02160052
-2.270702	有	-0.05309957
-3.657064	有一个	-0.02160052
-4.092671	有个人	-0.02160052
-3.449087	有些	-0.02160052
-3.373444	有人	-0.07271601
-4.092671	有光	-0.02160052
-3.449087	有关	-0.05936215
-4.092671	有几次	-0.02160052
-4.092671	有力	-0.02160052
-4.092671	有否	-0.02160052
-4.092671	有序	-0.02160052
-4.092671	有意无意	-0.02160052
-4.092671	有戏	-0.02160052
-4.092671	有成	-0.02160052
-3.937866	有所	-0.02160052
-4.092671	有所帮助	-0.02160052
-4.092671	有效	-0.02160052
-4.092671	有时	-0.02160052
-4.092671	有时候	-0.02160051
-4.092671	有期徒刑	-0.02160052
-4.092671	有机	-0.02160052
-4.092671	有权	-0.02160052
-4.092671	有根有据	-0.02160052
-3.937866	有点	-0.02160051
-4.092671	有特色	-0.02160051
-4.092671	有用	-0.02160052
-4.092671	有病	-0.02160052
-3.449087	有的	-0.02160052
-4.092671	有益	-0.02160051
-4.092671	有着	-0.02160052
-3.937866	有种	-0.02160052
-4.092671	有空	-0.02160052
-4.092671	有许多	-0.02160052
-4.092671	有趣	-0.02160051
-4.092671	有预谋	-0.02160051
-4.092671	朋友	-0.02160052
-4.092671	服	-0.02160052
-4.092671	服兵役	-0.02160052
-3.657064	服务	-0.02160052
-4.092671	服务项目	-0.02160052
-4.092671	服毒	-0.02160052
-3.449087	望	-0.1200404
-3.937866	望去	-0.02160052
-4.092671	望江楼	-0.02160052
-4.092671	望远镜	-0.02160052
-3.816416	朝	-0.02160051
-4.092671	朝云	-0.02160052
-4.092671	朝外	-0.02160052
-4.092671	朝政	-0.02160052
-4.092671	期	-0.02160052
-4.092671	朦胧	-0.02160052
-3.816416	木	-0.02160051
-4.092671	木塞	-0.02160052
-4.092671	木桩	-0.02160052
-4.092671	木棍	-0.02160052
-4.092671	木船	-0.02160052
-3.449087	未	-0.02160052
-4.092671	未曾	-0.02160051
-4.092671	未来	-0.02160052
-4.092671	未果	-0.02160052
-3.937866	未能	-0.02160052
-4.092671	未遂	-0.02160052
-3.937866	末	-0.02160052
-3.540743	本	-0.02160052
-4.092671	本书	-0.02160051
-4.092671	本人	-0.02160051
-4.092671	本厂	-0.02160052
-3.937866	本国	-0.1464405
-4.092671	本土	-0.02160052
-4.092671	本地	-0.02160051
-3.937866	本届	-0.02160051
-4.092671	本月	-0.02160052
-3.937866	本来	-0.02160051
-4.092671	本来面目	-0.02160052
-4.092671	本版	-0.02160051
-4.092671	本社	-0.02160052
-4.092671	本色	-0.02160051
-4.092671	本该	-0.02160052
-4.092671	本队	-0.02160052
-4.092671	札幌	-0.02160051
-4.092671	朱自清	-0.02160052
-4.092671	机	-0.02160052
-4.092671	机上	-0.02160052
-4.092671	机会	-0.02160052
-4.092671	机体	-0.02160051
-4.092671	机关算尽	-0.02160052
-3.937866	机制	-0.02160051
-4.092671	机器	-0.02160052
-4.092671	机智	-0.02160052
-3.816416	机构	-0.02160051
-3.657064	杀	-0.02160052
-4.092671	杀人	-0.02160052
-4.092671	杀死	-0.02160051
-4.092671	杀鸡取卵	-0.02160052
-3.937866	杂	-0.02160052
-3.937866	杂志	-0.02160052
-4.092671	杂志社	-0.02160052
-4.092671	杂文	-0.02160052
-4.092671	杂物	-0.02160052
-4.092671	杂质	-0.02160052
-4.092671	权	-0.02160052
-4.092671	权威	-0.02160052
-3.937866	杆	-0.02160052
-3.816416	李	-0.02160052
-4.092671	李公朴	-0.02160052
-4.092671	李军	-0.02160052
-4.092671	李宁	-0.02160051
-4.092671	李瑞环	-0.02160051
-3.937866	李白	-0.02160051
-4.092671	李进	-0.02160052
-4.092671	材	-0.02160052
-3.816416	材料	-0.1007225
-3.118354	村	-0.02160052
-4.092671	村办	-0.02160052
-4.092671	村口	-0.02160052
-3.816416	村委会	-0.02160051
-4.092671	村子	-0.02160052
-3.816416	村民	-0.02160051
-3.657064	村里	-0.02160052
-4.092671	村长	-0.02160051
-3.937866	杜	-0.02160052
-3.816416	束	-0.02160051
-3.540743	条	-0.02160052
-4.092671	条件	-0.02160052
-4.092671	条约	-0.02160052
-2.734273	来	-0.02160052
-4.092671	来之不易	-0.02160052
-3.816416	来了	-0.02160051
-3.540743	来到	-0.02160051
-4.092671	来回	-0.02160052
-4.092671	来源	-0.02160052
-4.092671	来源于	-0.02160052
-3.937866	来说	-0.02160052
-4.092671	来这里	-0.02160052
-3.816416	杨	-0.02160051
-4.092671	杨军	-0.02160052
-4.092671	杨勇	-0.02160052
-4.092671	杨国忠	-0.02160052
-4.092671	杨春	-0.02160052
-3.937866	杨朔	-0.02160051
-3.937866	杨某	-0.02160052
-4.092671	杨柳	-0.02160052
-4.092671	杨洪基	-0.02160052
-3.937866	杨贵妃	-0.02160051
-4.092671	杨钰莹	-0.02160052
-4.092671	杭州	-0.02160052
-3.540743	杯	-0.02160051
-3.937866	杰	-0.02160052
-4.092671	杰拉尔	-0.02160051
-3.657064	松	-0.02160052
-4.092671	松手	-0.02160052
-4.092671	极	-0.02160051
-4.092671	极差	-0.02160052
-4.092671	构筑	-0.02160051
-3.816416	枇杷	-0.02160052
-4.092671	枉	-0.02160052
-4.092671	枕套	-0.02160052
-3.816416	林	-0.02160052
-3.937866	林业	-0.02160051
-4.092671	林文	-0.02160052
-4.092671	果汁	-0.02160051
-4.092671	果然	-0.02160052
-3.816416	枝	-0.02160051
-4.092671	枪	-0.02160052
-4.092671	架设	-0.02160052
-4.092671	柄	-0.02160052
-4.092671	柏油	-0.02160052
-3.373444	某	-0.02160052
-3.937866	某些	-0.02160051
-4.092671	某市	-0.02160052
-4.092671	某种	-0.02160052
-3.937866	某部	-0.02160052
-4.092671	柑桔	-0.02160052
-4.092671	染	-0.02160052
-3.937866	柔和	-0.02160052
-4.092671	柔情	-0.02160052
-4.092671	柔柔	-0.02160052
-4.092671	柔软	-0.02160052
-4.092671	柔道	-0.02160052
-4.092671	柜台	-0.02160052
-4.092671	查	-0.02160052
-4.092671	查出	-0.02160052
-4.092671	查扣	-0.02160052
-4.092671	查找	-0.02160052
-4.092671	查获	-0.02160052
-4.092671	查阅	-0.02160052
-4.092671	柬	-0.02160052
-4.092671	柬埔寨	-0.02160052
-4.092671	柯	-0.02160052
-3.816416	柳	-0.02160052
-4.092671	柳州	-0.02160052
-4.092671	柳暗花明	-0.02160052
-4.092671	柳某	-0.02160052
-4.092671	柳生	-0.02160052
-3.937866	柴	-0.02160052
-3.937866	标准	-0.02160051
-4.092671	标志	-0.02160052
-4.092671	标的	-0.02160052
-4.092671	标语	-0.02160052
-3.937866	栋	-0.02160051
-4.092671	树	-0.02160052
-4.092671	树影	-0.02160052
-4.092671	树木	-0.02160051
-4.092671	栖霞	-0.02160052
-4.092671	校服	-0.02160052
-3.937866	株	-0.02160052
-3.816416	样	-0.02160052
-4.092671	样子	-0.02160051
-3.937866	核	-0.02160051
-3.937866	核心	-0.02160052
-4.092671	核桃	-0.02160052
-3.937866	核算	-0.02160052
-3.816416	根	-0.02160051
-3.540743	根据	-0.02160052
-3.937866	根据地	-0.02160052
-4.092671	根本	-0.02160052
-3.937866	格外	-0.02160051
-4.092671	格尔	-0.02160052
-4.092671	格洛	-0.02160052
-3.937866	栽	-0.02160051
-4.092671	桀纣	-0.02160052
-3.937866	桂	-0.02160051
-4.092671	桂云	-0.02160052
-4.092671	桂冠	-0.02160052
-3.657064	桃	-0.02160052
-4.092671	桃花庵	-0.02160052
-4.092671	案	-0.02160052
-4.092671	案犯	-0.02160052
-4.092671	桌上	-0.02160051
-4.092671	桐城	-0.02160052
-3.540743	桑	-0.02160051
-4.092671	桑拿浴	-0.02160052
-4.092671	桑蚕	-0.02160052
-4.092671	桓	-0.02160052
